7386 50
有限公司 -0.396442 -0.111527 -0.774969 -0.209193 -0.022332 1.247260 0.242429 -0.067477 -0.578267 0.181041 -0.428215 -0.358350 -1.142829 -1.589753 0.212176 -0.541826 -0.693521 -2.415323 -1.281076 1.507952 0.931558 1.526400 -0.527889 -1.784943 -0.065359 0.665712 1.849511 -1.459021 -1.680774 1.011180 -1.590351 -1.404976 -0.247516 -0.539129 0.081799 0.993750 -1.242409 1.267956 -1.160105 3.483615 -0.000254 -0.436032 1.186944 0.184817 0.390341 -1.990909 -1.514213 -0.126352 -0.591438 -1.424059
店 -0.740869 0.541368 -0.196825 -0.567120 -0.311678 0.249523 -0.962138 0.030211 0.459474 -0.306150 -0.925231 0.168194 0.104323 -1.214473 0.573299 0.226491 -0.052014 -0.404190 -0.117856 0.273177 0.215494 0.638713 -1.135350 -0.223204 -0.554489 -0.527900 -0.768638 1.021765 0.811272 0.297002 -0.697536 -1.543075 0.433581 0.324834 -0.694061 0.354726 -1.340797 0.553751 0.006043 0.638176 0.457687 0.004707 -0.224844 0.868095 0.215305 -0.860466 -0.529250 0.525987 -0.180004 -0.100717
停车场 -0.518042 0.809839 0.473934 -0.442032 -0.456887 0.108820 0.483463 0.770932 0.105005 0.752767 -1.157397 0.117625 -0.055743 -0.627366 0.699157 0.026975 -0.422460 -0.220381 -0.129636 -0.447862 0.606299 -0.077512 -0.582273 -0.490309 -0.042650 -0.675650 -0.397341 0.531783 0.337419 -0.035973 -0.812110 -1.124289 0.285440 0.524290 -0.413504 0.207602 -0.870957 1.109178 -0.330251 0.605639 0.287765 -0.889231 -0.294353 0.457830 0.054211 -0.837123 0.209988 0.268250 -0.052871 0.599251
上海 0.021827 0.396540 -0.244780 -0.153488 -0.348887 0.862055 0.682603 0.849177 0.206151 0.451937 -0.369171 0.500907 -0.603945 -1.045838 0.182334 -0.535024 -0.795490 -1.501787 -0.407590 0.261428 0.585711 1.156933 -0.459762 -0.945759 -0.517746 -0.032921 0.689172 -0.113621 -0.379616 0.444154 -0.815167 -0.944754 -0.428614 -0.500192 -0.143196 -0.034555 -0.940982 1.242051 -0.016182 1.852672 -0.395478 -0.290637 0.993263 0.435309 0.128755 -1.599775 -0.951220 -0.517347 -0.367039 -0.621587
公司 0.048440 0.180496 -0.584914 -0.269054 -0.491040 1.206813 0.341379 0.525480 -0.412160 0.635236 -0.269528 -0.325350 -1.022159 -1.509428 0.505796 -0.327071 -0.440782 -2.038005 -0.940514 1.101055 0.643890 1.383003 -0.951199 -1.137448 -0.222475 0.677524 1.855246 -0.454418 -1.202038 0.810353 -1.428207 -1.651371 -0.324081 -0.384744 0.044545 0.641491 -1.124258 1.396574 -1.049699 3.298944 -0.578155 -0.211681 1.024875 0.040794 0.294768 -1.794181 -1.743826 -0.085928 -0.518738 -1.165945
中心 -1.277826 -0.641659 1.063403 0.327142 1.055318 1.182584 1.763914 0.007969 0.393425 0.563504 -1.601478 1.112480 -0.927606 -0.559864 -0.000750 -0.363859 -0.797241 -1.276628 -0.663412 -0.346477 1.375767 -0.078119 0.776617 -2.457464 0.147648 -0.363599 -0.208418 -0.959495 -0.045953 0.416330 -1.227749 -0.838434 -0.002460 0.035254 -0.418373 0.243823 -0.889219 1.756205 -0.423745 0.824149 0.953780 -1.469849 1.134130 0.200833 0.423787 -1.365694 0.822430 0.434971 -0.373120 -0.887233
》 -1.016966 0.595792 -0.149861 0.187704 -1.373767 1.893676 0.948855 1.478505 0.629737 -0.693311 0.258375 1.618795 0.126875 -0.822621 1.113543 -0.160982 -1.868853 -1.314578 0.916423 0.058403 0.700069 1.343630 -1.157183 0.373975 -0.377483 -1.062402 0.822294 2.159045 -0.470134 0.030826 -1.333190 -1.532685 0.266142 0.267880 -0.879707 0.011551 -1.249210 1.892438 0.621964 3.103116 -1.291461 0.245239 1.699459 1.347238 1.068350 -1.857800 -1.764729 0.977342 -0.642293 -1.332626
《 0.072787 -0.100414 0.634992 -1.009528 -1.080639 0.937272 -0.389459 0.466548 0.066387 -0.296269 -0.106645 1.005294 -0.936770 -1.890762 0.400902 -0.102292 -0.332574 -1.656017 -1.764987 1.014461 0.946289 1.026066 -1.481360 -0.940676 -1.034739 0.347243 0.533534 1.503116 0.786082 1.253067 -1.497924 -2.248805 -0.473650 -1.331909 0.243945 -0.874245 -0.817285 0.766788 -0.255263 2.338778 0.664605 0.435303 0.518015 0.143057 0.026853 -2.163810 -1.271451 -1.167644 -1.390376 -1.393193
. -1.929665 1.020301 -0.439357 -1.580161 0.718452 -1.177831 -1.634871 0.514004 -0.722534 -1.278382 -2.087098 0.201881 0.467911 -1.960518 0.672228 -0.885450 -1.243846 -0.204039 0.418970 1.476678 -0.150686 1.497416 -2.060959 -2.123595 -0.287423 0.440285 -2.496902 1.884435 1.114978 0.700433 -1.351961 -2.057245 -0.644469 0.171850 -1.025484 0.778386 -2.677402 1.259796 1.591496 -0.144167 1.481732 -0.439328 0.403640 2.357069 -0.522830 -0.965180 0.257233 -0.880401 -0.137669 -0.072393
超市 -0.937769 0.336650 -0.427331 -1.000901 0.568261 -0.163912 -1.172386 -0.509557 0.551659 -0.404952 -1.483431 -0.095057 -0.109383 -1.566034 0.794795 -0.291370 -0.269968 -0.599741 0.266820 0.390900 0.060324 1.086008 -0.990691 -0.756477 -0.910663 -0.745729 -1.864493 0.793487 1.173721 0.088466 -0.363126 -1.538377 0.725674 -0.061915 -1.017353 0.725768 -1.648073 0.476104 0.158985 0.112844 0.419373 0.627500 -0.052883 1.089642 -0.421957 -1.094921 0.462120 0.409189 0.056315 0.005560
no -1.883737 0.701809 -1.750096 0.103438 0.251617 0.132586 -0.384278 -0.604321 1.368468 -0.626078 -2.374903 1.210583 0.160492 -1.893214 1.014154 -0.236638 -0.648923 -1.847606 0.719517 -0.193448 -0.663698 0.256877 -1.027977 -0.146516 -1.249749 -1.277262 -1.910655 2.007855 1.828103 -1.218452 0.384928 -2.454439 1.422426 -0.722435 -1.601232 0.976391 -2.197811 0.150180 1.171258 0.641307 1.384373 0.497590 -0.747825 1.818541 0.397827 -1.556527 -0.176761 0.985869 -0.801577 -0.674527
北京 -0.168727 0.281666 -0.071851 -0.126216 -0.338035 0.830359 0.718168 0.656670 0.225784 0.430232 -0.316938 0.651592 -0.336721 -0.917244 0.179522 -0.300922 -0.548723 -1.313907 -0.273351 0.018547 0.426519 0.912445 -0.502419 -0.701280 -0.443536 -0.205846 0.451722 0.084771 -0.206450 0.307646 -0.819620 -1.023234 -0.256466 -0.249537 -0.229432 -0.030566 -0.707028 0.976489 -0.144526 1.436304 -0.230551 -0.170484 0.725934 0.444438 0.131855 -1.441867 -0.938986 -0.163208 -0.263637 -0.594584
－ -0.467868 0.954195 1.009285 -0.167752 -1.265439 0.650820 1.451596 1.297618 0.503272 1.023077 -1.375897 -0.025411 0.348063 -0.942401 1.728752 0.590810 -0.984953 -0.872446 -0.432352 -0.772788 0.239490 -0.044521 -1.330041 -0.773553 1.321301 -0.698399 0.315849 0.810291 0.603692 -0.363601 -1.442058 -1.671544 0.364047 1.243401 -0.861419 -1.235044 -1.045214 1.023699 -0.553091 0.557842 0.789621 -2.170057 0.264088 1.046705 0.377171 -1.153255 -0.177362 -0.580965 0.566305 0.439343
atm 0.169063 2.185601 -0.497055 -1.684660 0.586118 -0.090439 1.473962 0.220287 0.025490 1.609739 -2.034806 0.594468 -0.902231 -2.573803 -0.850472 -1.321871 1.364238 -0.156243 -0.203335 -0.302373 -0.705525 1.491681 -0.260826 -1.463582 -0.559312 -0.543731 -0.010486 -1.351413 -0.304394 0.233805 -1.610627 -0.671594 -0.493053 1.035253 -0.474227 2.091452 -1.068890 0.023635 -0.869542 1.208498 1.532659 -0.349510 -1.752757 -0.699495 -0.535809 -2.220478 -0.474627 1.020174 0.349858 -0.384727
科技 -0.559459 0.021331 -0.745973 -0.610021 -0.264628 0.833117 0.756722 0.465037 0.144460 1.094296 -0.439284 0.283205 -0.556958 -1.773033 0.475221 -0.604135 -0.988414 -1.420159 -0.400889 0.551123 0.124806 1.205184 -0.398891 -0.481823 -0.973364 -0.045946 0.595652 0.085240 -1.023702 -0.339975 -1.430795 -0.590714 0.376193 -0.539500 0.162775 0.387447 -0.618577 1.314931 0.302907 2.284429 -0.199922 0.136307 1.008422 0.334861 0.340401 -2.210356 -1.081224 -0.362374 -0.424845 -1.131205
汽车 -1.573133 -0.620440 -0.409396 -0.339319 1.491192 1.568761 0.391733 0.101009 0.149603 0.465347 -1.008651 0.751349 -1.225127 -1.432296 -0.506032 -0.218892 -1.133653 -1.331015 -0.268524 -0.338417 1.582278 0.213630 1.138963 -1.890451 -1.201294 -0.460057 -0.330651 -1.016504 -0.737345 0.444740 -0.606911 -0.187669 0.746684 0.037101 -0.257705 0.507257 -0.943164 1.468469 0.400270 1.351671 1.238961 -0.612843 1.438006 1.459000 0.339165 -1.848927 -0.582428 0.467135 0.077325 -1.798926
服务 -2.059619 -1.185561 0.297884 0.685845 0.545565 0.518891 1.831482 -0.169124 1.041539 0.643715 -0.730565 1.011139 -0.866899 -0.732655 -0.315359 -1.316786 -0.710576 -2.366741 -0.197787 -0.042055 0.502951 0.652071 1.076371 -2.173801 -1.087844 -0.593313 -0.003468 0.041965 -0.483602 -0.314812 -1.409724 -0.472386 -0.241036 -0.134774 -0.269063 0.745982 -1.082484 1.230227 0.252360 0.478147 1.146689 -1.021523 0.874473 0.598964 -0.533339 -1.896480 -0.384921 -0.450323 -0.282710 -1.160408
深圳市 -0.184319 -0.022185 -0.457779 -0.107857 -0.027778 0.699638 0.864882 0.509335 0.148449 1.255054 -0.838228 -0.189622 -1.058868 -0.991169 0.407209 -0.691762 -0.689501 -1.376548 -0.386314 0.535703 0.461914 1.284191 -0.011160 -1.023228 -0.724910 0.135081 0.681528 -0.787297 -0.895222 0.054915 -0.707851 -0.475145 -0.186498 -0.740549 0.155202 0.575610 -0.921550 1.544842 -0.012218 2.102182 -0.501448 -0.467280 0.954302 -0.076366 -0.184577 -1.732643 -0.722448 -0.596576 -0.297609 -0.502094
连锁 -1.809190 0.189816 -0.701710 -0.843273 0.679160 0.048502 -1.869945 -0.380603 0.869796 -1.123139 -1.387769 0.448210 -0.038076 -1.542405 0.158634 -0.452094 -0.962677 -1.045504 -0.202328 0.739264 -0.014235 0.854128 -0.948878 -1.352015 -1.271263 -0.736713 -1.853704 1.298338 1.241794 0.256066 -0.517157 -1.703175 0.656024 -0.027311 -1.100964 0.443269 -2.052853 0.572191 0.743822 0.363674 1.247677 0.200339 0.523347 2.065777 0.032063 -1.296981 -0.213132 0.128408 -0.105778 -0.731257
公厕 -0.026600 0.023588 0.012539 -0.006940 -0.006513 0.023886 0.030173 0.025557 0.017025 0.066369 -0.089742 -0.003626 -0.037875 -0.067166 0.043834 -0.027073 -0.000095 -0.044542 -0.006719 -0.004125 0.006804 0.042420 -0.035662 -0.056752 -0.018816 -0.012289 -0.008523 0.008011 0.012884 -0.009816 -0.065350 -0.064121 0.008742 0.038198 -0.020823 0.045563 -0.081357 0.072020 -0.017247 0.052372 0.026469 -0.038896 0.000571 0.018351 -0.000099 -0.072183 -0.025550 0.015135 0.003131 0.005140
广州 0.122620 0.787382 -0.507734 -0.379070 -0.250022 0.670075 1.156651 0.738688 0.120777 0.967986 -0.325023 0.935807 -0.379867 -1.380384 -0.154887 -0.700204 -0.392362 -1.357971 -0.372011 0.042684 -0.027018 1.235027 -0.478649 -0.823995 -0.543149 -0.041997 0.733014 -0.509378 -0.637857 0.175209 -1.318760 -0.755568 -0.337635 -0.202402 0.039903 0.289553 -0.415605 0.858433 -0.257783 1.727251 -0.157515 -0.097030 0.220963 0.109216 0.206880 -1.815852 -0.980350 -0.090556 -0.277779 -0.607946
苏州 0.065810 0.436639 -0.313088 -0.243195 -0.342796 0.820295 0.840302 0.718114 0.099863 0.841537 -0.407450 0.405321 -0.620224 -1.115921 0.166090 -0.537284 -0.518034 -1.314348 -0.370742 0.232426 0.356494 1.114285 -0.458528 -0.662104 -0.529899 0.009522 0.751224 -0.323518 -0.552175 0.240332 -0.954710 -0.837920 -0.288345 -0.354650 0.061315 0.177683 -0.722378 1.163660 -0.167276 1.981917 -0.446797 -0.187829 0.694048 0.166797 0.177988 -1.611672 -1.052729 -0.279508 -0.308046 -0.570894
杭州 0.204818 0.706795 -0.502814 -0.308823 -0.117839 0.441457 0.811165 0.492823 0.187141 0.915200 -0.410356 0.405295 -0.274594 -1.204896 0.115685 -0.547149 -0.415773 -1.102797 -0.270035 0.025579 -0.025765 0.975174 -0.415609 -0.582133 -0.537027 -0.145059 0.386722 -0.476713 -0.561728 -0.029775 -0.959160 -0.562675 -0.145835 -0.192698 0.005682 0.234132 -0.511216 0.750388 -0.077372 1.296895 -0.267450 -0.119700 0.342417 0.170545 0.106822 -1.484312 -0.695858 -0.210201 -0.049586 -0.322308
分店 -1.059047 0.467151 -0.547549 -0.553597 0.400739 0.065536 -1.304369 -0.432938 0.490742 -0.335839 -1.080076 -0.055729 0.109612 -1.292417 0.429785 -0.051504 -0.127471 -0.491774 -0.006790 0.582812 -0.118998 0.762961 -0.975685 -0.427253 -0.665330 -0.573445 -1.157313 0.865265 0.720626 0.198451 -0.441092 -1.337672 0.570288 0.312800 -0.760621 0.680018 -1.553389 0.506371 0.169311 0.436687 0.719594 0.152765 -0.079339 0.864489 -0.045258 -0.820680 -0.401344 0.515058 -0.143294 -0.185330
成都 0.005776 0.707775 -0.422902 -0.115766 0.078871 0.588904 0.894869 0.460493 0.037033 0.804216 -0.337083 0.510598 -0.291335 -1.194859 -0.102775 -0.670496 -0.457586 -1.391989 -0.346916 0.038029 0.127160 0.867196 -0.336797 -0.797017 -0.349710 -0.112755 0.494401 -0.406211 -0.732093 0.139855 -1.111849 -0.617773 -0.354797 -0.177912 0.043570 0.272848 -0.771200 1.034632 -0.063381 1.529296 -0.210660 -0.375508 0.652060 0.204342 0.105739 -1.546571 -0.959110 -0.197357 -0.183397 -0.544669
国际 -1.041693 0.215550 0.014256 -0.438288 -0.325334 0.468459 0.195917 0.665137 0.237034 -0.292952 -0.560722 0.930511 -0.098565 -0.821310 0.321315 -0.237270 -1.277306 -1.067477 -0.301063 0.024038 0.658722 0.067502 -0.335917 -0.851501 -0.506881 -0.446147 -0.074005 1.090392 0.311012 0.176173 -0.896808 -1.191787 0.268274 -0.149426 -0.431202 -0.444249 -0.807492 0.852528 0.287018 1.191200 0.352767 -0.357357 0.764750 1.392498 0.396754 -1.226567 -0.309902 -0.220148 -0.292600 -0.716638
南京 -0.085618 0.431631 -0.269806 -0.233194 -0.124450 0.565660 0.943922 0.598629 0.113099 0.790516 -0.461480 0.528474 -0.499507 -0.991531 0.003631 -0.577116 -0.465316 -1.152641 -0.294738 0.012938 0.290811 0.804573 -0.268625 -0.820991 -0.515322 -0.089010 0.391398 -0.326123 -0.441106 0.133047 -0.863564 -0.685204 -0.262741 -0.235644 -0.001603 0.210415 -0.641884 0.914953 -0.090361 1.436580 -0.158674 -0.286122 0.501724 0.255497 0.020147 -1.431185 -0.726392 -0.238262 -0.147504 -0.518825
酒店 -0.559269 1.253957 0.742379 0.179067 -0.638258 0.663701 0.481921 0.627971 0.095545 0.292676 -1.310184 0.401278 -0.120555 -1.211522 0.987833 -0.050592 -1.042817 -0.912574 -0.387895 -0.562998 0.869187 -0.450649 -1.424918 -1.011202 0.724958 -1.074197 -0.050377 0.414110 0.154552 0.145878 -0.985209 -1.426694 0.004596 0.703928 -0.466977 -0.654196 -0.917532 0.931354 -0.535294 0.820645 0.467579 -1.255263 1.139984 1.426062 0.604705 -1.265561 0.024261 -0.022325 0.336313 -0.011223
便利店 -1.158194 0.560345 -0.365672 -0.604744 0.397522 -0.109844 -0.910550 -0.181031 0.469492 -0.274463 -1.533273 0.061729 -0.042986 -1.311941 0.686453 -0.219980 -0.383500 -0.488764 0.170905 0.308485 -0.045302 0.560090 -1.018035 -0.613917 -0.632457 -0.628388 -1.423162 0.947383 1.049699 0.033479 -0.274601 -1.457692 0.603452 0.136903 -0.891571 0.586239 -1.705332 0.550278 0.300476 0.366169 0.663657 0.069025 -0.056364 1.100530 -0.181433 -0.896974 0.139973 0.472836 -0.147525 0.053154
百货 -0.292115 0.164116 -0.454641 -0.447147 0.097885 0.194186 -0.634002 -0.009307 0.391025 0.454949 -0.963527 -0.530037 -0.494523 -1.003904 0.597462 -0.113236 -0.204935 -0.369719 0.154442 0.312144 0.111811 0.617999 -0.628589 -0.140702 -0.589800 -0.372215 -0.579596 0.189247 0.367322 -0.117999 -0.143296 -0.601439 0.392169 0.087421 -0.440023 0.668219 -1.085133 0.536664 -0.186890 0.579060 -0.128947 0.133647 0.193133 0.376740 -0.167426 -0.768855 -0.111145 0.243425 0.065005 0.104861
装饰 -0.018152 0.127229 -1.202238 -0.410099 0.811495 0.667847 0.087159 0.711643 0.053375 1.590256 -0.812315 -0.785564 -1.361930 -1.394345 0.191374 -0.418288 -0.462080 -1.763372 -0.368149 0.205227 0.521914 0.267814 0.255037 -1.383468 -0.951024 0.652527 1.149254 -0.504696 -0.422038 -0.098705 -0.986621 -0.915012 0.582729 0.390007 -0.298233 0.482159 -0.753100 1.021436 -0.424572 1.732432 -0.726172 -0.639651 0.823107 0.448544 0.214518 -1.077576 -0.938148 -0.095744 0.552212 -1.084968
彩票 -1.036397 0.095606 0.609353 -0.705102 -0.271639 1.050030 0.652687 0.583888 -0.386695 1.870576 -2.689689 -1.030473 -0.801437 -1.218789 1.534658 0.070844 0.709238 -0.350640 0.949159 0.072063 0.900393 1.541003 -0.937379 -0.166694 -0.228501 -0.711289 0.009413 -0.139938 -0.319165 0.056388 -0.277817 -1.496548 0.017886 1.149675 -0.650241 1.872926 -1.841472 2.184637 -1.090814 0.842609 0.121317 -0.233178 -0.723147 -0.130795 -0.784363 -1.068494 -1.514662 1.211508 -0.268544 0.427411
销售店 -0.008209 0.549702 0.059687 0.715063 0.032846 -0.671593 0.896415 0.626434 1.148780 2.244547 -2.351477 -0.095030 -1.096693 -2.346030 1.115830 -0.463200 0.221779 -0.433091 -0.727654 0.036998 -0.527427 2.081114 -1.252379 -1.422649 -1.144119 -0.502923 -0.965950 -0.774615 0.734044 -0.772273 -0.516781 -1.190965 -0.014465 0.599296 -1.006490 1.335044 -1.190319 0.925482 -0.959004 0.562241 0.561304 -1.477004 -0.822644 -0.496885 0.421052 -1.406845 -0.093258 0.210036 -0.100741 0.713811
商行 0.099219 -0.001009 -0.955819 -0.292603 0.163993 0.356743 -0.460472 0.175800 0.359518 1.127488 -1.048347 -1.266253 -0.949582 -1.305632 0.687740 -0.372592 -0.168686 -0.649695 0.205592 0.612853 0.063990 0.869594 -0.431154 -0.105940 -0.517249 -0.087869 0.027346 -0.560192 0.102226 -0.176605 -0.017739 -0.300967 0.171978 0.010229 -0.212513 0.865483 -1.242654 0.631776 -0.543198 1.032794 -0.530305 -0.002245 0.501075 0.142321 -0.246119 -0.910893 -0.538698 -0.037621 0.054506 0.142524
美容 -2.150105 -0.507809 0.002631 0.247572 1.161345 -0.080197 -0.392722 -0.444855 0.762803 -0.483103 -1.414379 0.848122 -1.006894 -0.966347 -0.769061 -0.894918 -1.099153 -1.781109 -0.285595 -0.029780 0.846750 0.447203 0.867839 -2.592250 -1.219868 -0.559180 -0.886010 -0.242725 1.415006 0.696696 -0.739082 -0.997416 -0.322648 1.049292 -0.971188 0.537535 -2.478551 0.588089 0.225287 0.203489 1.174559 -1.332043 0.630143 2.127004 0.047128 -0.940056 -0.561402 0.095385 0.144978 -1.045563
广州市 -0.278532 -0.309142 -0.198846 0.093148 0.324276 0.550221 1.376568 0.215821 0.483739 1.613521 -0.788431 -0.156114 -1.067583 -0.755353 0.536506 -0.895250 -0.325662 -1.409981 -0.116909 0.211531 -0.057315 1.031056 0.446745 -1.191826 -0.722832 0.271939 0.678253 -0.862201 -0.605400 -0.382633 -1.087802 -0.303386 -0.074128 -0.293040 0.057240 0.708841 -0.540764 1.392214 -0.013542 1.516330 -0.405191 -0.487221 0.486982 -0.663061 -0.303115 -1.373603 -0.139977 -0.309560 -0.386831 -0.321221
新 -0.363979 0.034995 -0.279417 -0.346283 -0.032811 0.322943 0.149382 0.185958 0.287579 0.599102 -0.535443 -0.102355 -0.471819 -0.742048 0.397727 -0.309490 -0.479149 -0.700897 -0.154017 0.284192 0.224953 0.532185 -0.168151 -0.451789 -0.580819 -0.174956 -0.048900 0.015126 -0.112755 -0.108229 -0.632119 -0.482080 0.268665 -0.171952 -0.142628 0.393265 -0.678584 0.762593 0.023686 0.995024 -0.058987 -0.123991 0.302921 0.231485 -0.057568 -0.976677 -0.170438 -0.107586 -0.109702 -0.208259
中 -0.343795 0.168884 -0.352798 -0.458883 -0.215564 0.476171 0.199754 0.452118 0.190448 0.421887 -0.541588 0.295626 -0.426556 -0.916784 0.314804 -0.346942 -0.725439 -1.006894 -0.349077 0.301444 0.312134 0.684874 -0.341285 -0.654418 -0.655283 -0.074763 0.191867 0.121869 -0.178273 0.089132 -0.812206 -0.804298 0.197195 -0.318938 -0.122118 0.094074 -0.657273 0.808466 0.133501 1.478272 -0.043694 -0.147164 0.665278 0.613703 0.138661 -1.304814 -0.541305 -0.256823 -0.237486 -0.545880
支行 0.453740 2.236142 -0.333742 -1.973694 0.399951 -0.038737 2.107659 0.129850 -0.087259 1.421745 -1.481736 0.990668 -0.849319 -2.469366 -1.257935 -1.582713 1.693985 -0.027507 -0.420746 -0.382154 -0.933970 1.294654 0.189024 -1.445420 -0.433853 -0.476287 0.548231 -1.467961 -0.589681 0.278779 -2.044072 -0.318980 -0.648645 0.911537 -0.220245 1.980747 -0.288454 -0.539017 -0.884261 1.377094 1.768090 -0.074894 -2.120004 -1.188667 -0.603549 -2.426748 -0.276395 1.015939 0.266899 -0.741783
社区 -1.661301 -0.721301 0.874306 0.217951 0.792797 0.201891 2.069409 -0.598902 0.666611 1.576164 -1.568584 0.652529 -0.457464 -0.105880 0.850712 -1.064959 0.150000 -1.055857 0.291090 -0.207369 -0.666727 0.323195 0.463337 -1.693141 -0.418669 0.079083 -0.770901 -0.058247 -0.124482 -1.254493 -2.104339 -0.561973 0.479914 0.182862 -0.030368 1.510741 -0.183461 1.516178 -0.111564 0.227729 0.567306 -0.521733 -0.834587 -1.555379 -0.692568 -1.077355 1.583845 0.991996 -0.743815 0.267953
和 -0.671269 -0.410904 -0.242810 -0.259877 0.165939 0.572723 0.105555 -0.044129 0.349695 0.548763 -0.794067 -0.357946 -0.622447 -0.609070 0.483030 -0.424622 -0.437472 -0.906175 0.013006 0.365213 0.217783 0.533464 0.094243 -0.666347 -0.606678 -0.027840 -0.112837 -0.089874 -0.100325 -0.103699 -0.472688 -0.446476 0.311852 -0.258132 -0.179342 0.502211 -0.766679 0.912075 0.072563 0.989350 -0.021742 -0.121314 0.589027 0.215127 -0.288579 -0.961355 -0.080830 -0.092335 -0.144283 -0.280474
分公司 -0.263621 0.314679 -0.669074 -0.483174 -0.402347 1.117817 0.942575 0.480063 -0.085799 0.969767 -0.133930 0.959540 -0.552798 -2.009521 0.188954 -0.600173 -0.596580 -1.808674 -0.782645 0.532838 0.106537 1.418614 -0.734973 -0.769781 -0.819070 0.115545 1.325791 -0.029750 -1.084043 0.212390 -2.107971 -1.200819 -0.026269 -0.201046 0.152164 0.301123 -0.338727 1.153988 -0.270312 2.788648 -0.057844 0.164673 0.636878 0.137175 0.610734 -2.411319 -1.859154 -0.083387 -0.561009 -1.509422
五金 0.423833 0.162888 -0.989929 -0.537805 0.113690 0.629476 -0.344752 0.067760 0.405838 1.715794 -0.679802 -1.265732 -1.253428 -1.421845 0.944945 -0.399935 -0.466732 -0.614360 0.084985 0.969351 0.203875 0.966732 -0.445267 0.032478 -0.809865 0.113874 0.582970 -0.597005 -0.354102 -0.269107 -0.188308 0.098597 0.168790 -0.034770 -0.067728 1.009776 -1.193916 1.037340 -0.556445 1.696454 -0.713646 -0.222599 0.719615 -0.187627 -0.360438 -1.225257 -0.809337 -0.221043 0.254380 -0.109779
大厦 -0.371726 0.854930 0.443683 -0.315365 -0.413261 0.247942 0.232724 0.704354 -0.238825 0.351030 -0.974060 0.471203 -0.171798 -0.526729 0.448624 -0.051722 -0.503844 -0.203911 0.098768 -0.306274 0.654225 0.036103 -0.731474 -0.518522 -0.089950 -0.441647 -0.502323 0.501496 0.231673 0.176645 -0.474601 -0.871611 0.078076 0.195602 -0.142626 0.128173 -0.713442 0.982448 -0.410075 0.767377 0.133781 -0.481669 0.023071 0.352244 -0.075227 -0.676346 0.191517 0.415417 -0.249959 0.259709
深圳 0.077156 0.651468 -0.136223 -0.323381 -0.617310 0.829433 0.911001 0.898362 0.187772 0.506699 -0.144168 1.049074 -0.339018 -1.197661 0.172617 -0.553131 -0.557113 -1.368406 -0.424160 0.186013 0.131556 1.312327 -0.744561 -0.618455 -0.564405 0.000239 0.728331 0.230535 -0.332181 0.303084 -1.300859 -1.114766 -0.384771 -0.381539 -0.020836 0.020355 -0.556756 1.041767 -0.037732 2.030814 -0.331125 0.058648 0.460426 0.139859 0.257083 -1.803586 -1.152471 -0.195698 -0.592689 -0.678470
东莞市 -0.053880 0.063999 -0.577126 -0.159297 0.078012 0.563250 0.870331 0.408416 0.144759 1.410295 -0.702974 -0.192033 -0.948526 -1.105047 0.366353 -0.737436 -0.426191 -1.256834 -0.293169 0.425778 0.097306 1.219097 -0.032824 -0.878995 -0.730086 0.203875 0.685927 -0.774882 -0.796018 -0.124208 -0.887536 -0.381157 -0.118616 -0.401210 0.109212 0.623878 -0.688394 1.267478 -0.093895 1.801447 -0.425270 -0.284210 0.611807 -0.250724 -0.141175 -1.555199 -0.713364 -0.448020 -0.240050 -0.394777
委员会 -2.267076 -1.027406 1.418898 0.418227 0.420505 -0.688002 2.671871 -0.203947 0.255752 2.959993 -2.119006 -1.013940 -1.157030 -0.076472 2.011697 -2.159750 0.340929 -1.453771 -0.216010 0.697759 -1.268881 1.325417 0.658212 -1.333875 -0.944740 0.750405 -1.369049 0.407183 0.575595 -2.031526 -1.867588 -0.489855 0.711543 0.337788 0.120686 2.781498 -1.289507 1.961318 -0.126759 1.000543 -0.002657 -1.015480 -2.068627 -1.984500 -0.864438 -0.918539 1.911147 0.889050 -0.203788 0.494968
工程 0.005464 0.067380 -1.107997 -0.206949 0.430815 0.953100 1.202121 0.748043 -0.287053 2.060902 -0.596852 -0.291802 -1.517984 -1.683836 0.566371 -0.711055 -0.465734 -1.834805 -0.127701 0.167307 0.259861 0.712056 0.142707 -1.011434 -1.189682 0.702682 1.122211 -0.522587 -0.421614 -0.265063 -1.203896 -0.841965 -0.103844 0.253891 -0.016996 0.254104 -0.818205 1.525726 -0.163657 2.650380 -0.755845 -0.363940 1.350577 0.043604 0.126508 -1.662451 -1.535284 -0.639138 0.027814 -1.037748
广场 -0.605457 1.040516 0.419551 -0.441146 -0.345243 0.178643 -0.241133 0.620796 -0.069325 -0.127463 -1.156853 0.512027 -0.067314 -0.706451 0.620240 -0.041806 -0.536946 -0.176089 0.091544 -0.116095 0.652333 0.164944 -1.143705 -0.528110 -0.108283 -0.598123 -1.029441 1.065058 0.755276 0.370665 -0.474294 -1.372283 0.185537 0.233394 -0.426448 0.088024 -1.211735 1.004201 -0.180790 0.815256 0.188656 -0.352303 0.153427 0.729581 -0.021892 -0.701250 0.222372 0.427034 -0.239667 0.247775
管理 -1.225948 -0.837960 0.292084 0.102883 -0.045763 1.316647 1.722325 0.279866 0.445852 1.407396 -0.825652 0.594527 -0.767645 -1.122788 0.523277 -0.795467 -0.878111 -2.010795 -0.235821 -0.078411 0.520087 0.636898 0.551700 -1.644329 -0.544407 0.021911 0.994973 -0.091011 -1.039582 -0.231446 -1.636742 -0.522387 0.055269 -0.467654 0.105167 0.302803 -0.385765 1.819649 -0.187308 1.738846 0.269013 -0.762260 1.147037 -0.238640 -0.141552 -1.991269 -0.637597 -0.362628 -0.509666 -1.140882
专卖店 -0.889373 0.550322 -0.544686 -0.522962 0.001317 -0.109345 -0.375544 0.109467 0.231985 -0.087896 -1.296057 0.137445 0.058061 -1.075247 0.426253 -0.456131 -0.112349 -0.218480 0.301051 0.399099 -0.075089 0.639774 -0.894387 -0.368403 -0.556456 -0.315248 -1.043829 0.622243 0.636786 0.000591 -0.265082 -1.145242 0.257998 -0.031837 -0.383039 0.872676 -1.427165 0.696137 0.340641 0.674504 0.467763 0.045660 -0.149880 0.760483 -0.065307 -0.825680 -0.296713 0.371762 -0.339473 0.097172
南门 -0.344751 0.517615 0.178679 -0.449932 -0.537329 0.196776 0.406391 0.616528 0.031083 0.637377 -0.673701 0.232402 -0.216062 -0.663265 0.630527 -0.255605 -0.345270 -0.175924 -0.028628 0.059284 0.400970 0.354856 -0.579609 -0.197284 -0.422629 -0.358878 -0.302744 0.528700 0.157483 -0.042732 -0.659675 -0.813045 0.186272 -0.124432 -0.074250 0.427088 -0.758704 1.008695 -0.032935 1.068296 -0.083018 -0.254949 -0.132521 0.069307 -0.080663 -0.921359 -0.088871 0.181238 -0.369695 0.157230
餐厅 -0.619352 0.632461 0.270532 -0.090803 -0.044814 0.052332 0.072523 0.242928 0.187195 0.544726 -1.316374 -0.064677 -0.159388 -0.866492 0.698703 -0.027456 -0.117588 -0.183671 0.026097 -0.106677 0.147269 0.317610 -0.800584 -0.503587 -0.009576 -0.489644 -0.584355 0.397143 0.483389 -0.052408 -0.523770 -1.024958 0.229211 0.614035 -0.555603 0.508473 -1.180652 0.793560 -0.244512 0.312395 0.411626 -0.629653 -0.197998 0.360591 0.021681 -0.591044 -0.098263 0.423401 0.035701 0.318613
广告 -0.279823 0.106638 -0.606368 -0.303691 0.082455 0.370491 0.403199 0.269698 0.138366 0.836793 -0.569174 0.041482 -0.481007 -1.064225 0.287212 -0.415555 -0.487903 -0.817055 -0.157589 0.235526 0.006293 0.706824 -0.130004 -0.489211 -0.585608 -0.032372 0.282341 -0.190959 -0.457291 -0.203235 -0.777728 -0.377913 0.224017 -0.155122 -0.072801 0.390003 -0.493411 0.776294 0.118755 1.173009 -0.128483 -0.123122 0.480459 0.256941 0.095972 -1.240873 -0.585325 -0.201266 -0.071364 -0.492144
鑫 -0.118303 -0.028046 -0.650416 -0.310104 0.034682 0.547791 0.057572 0.262525 0.127243 0.852037 -0.600311 -0.478319 -0.789815 -1.105559 0.372780 -0.352932 -0.612499 -0.986432 -0.241553 0.446734 0.383287 0.856154 -0.092636 -0.530580 -0.619678 -0.045719 0.386933 -0.526780 -0.480721 0.012724 -0.473151 -0.303172 0.086796 -0.192729 -0.114675 0.375270 -0.844867 0.874653 -0.090238 1.333092 -0.288305 -0.238405 0.826031 0.420190 0.003010 -1.215912 -0.707265 -0.401587 0.044224 -0.454869
造型 -1.272500 0.087233 0.090367 -0.198109 0.448842 -0.080602 -0.354726 -0.044757 0.523779 0.017621 -1.432304 0.105371 -0.378251 -0.791350 0.403659 -0.284023 -0.265199 -0.590443 0.085395 0.034271 0.311802 0.239809 -0.246322 -1.115497 -0.349002 -0.419215 -0.907922 0.649854 0.982752 0.084763 -0.327411 -0.966373 0.285618 0.509228 -0.723699 0.481898 -1.493930 0.626236 -0.000494 0.030673 0.755515 -0.563088 -0.108997 0.888734 -0.131923 -0.493076 -0.000569 0.424219 0.071317 -0.027577
贸易 -0.368966 0.105669 -0.761099 -0.391697 -0.083040 0.661226 0.763785 0.353341 0.348834 1.114776 -0.512156 0.298841 -0.614076 -1.537528 0.462379 -0.732253 -0.853809 -1.271809 -0.346695 0.494598 -0.056394 1.214839 -0.221265 -0.560228 -0.906838 -0.086420 0.548025 -0.174083 -0.751115 -0.374077 -1.293517 -0.436440 0.243096 -0.430205 0.066410 0.444714 -0.466709 1.050230 0.331604 1.911356 -0.233491 -0.037726 0.715449 0.213569 0.235997 -1.983588 -0.826081 -0.431832 -0.304339 -0.787275
服饰 -0.465890 0.184591 -0.635927 -0.302290 0.054988 0.307604 0.236198 0.191003 0.345059 0.616049 -0.563023 0.298524 -0.352896 -1.122009 0.259416 -0.448181 -0.632677 -0.794197 -0.101828 0.157960 -0.067216 0.670978 -0.194847 -0.403931 -0.702146 -0.236663 -0.019982 0.144509 -0.174699 -0.298031 -0.686475 -0.433315 0.316231 -0.238903 -0.165828 0.215752 -0.557407 0.639846 0.385372 0.968490 0.004745 0.008747 0.459207 0.522015 0.147378 -1.257060 -0.449591 -0.219145 -0.056348 -0.537353
北门 -0.358666 0.468382 0.173169 -0.341738 -0.342002 0.136512 0.352229 0.478352 0.097308 0.652204 -0.738681 0.155542 -0.273584 -0.705550 0.581674 -0.266453 -0.272606 -0.271322 -0.054155 0.058038 0.303944 0.415434 -0.551795 -0.323789 -0.344168 -0.306750 -0.273261 0.403017 0.206955 -0.007329 -0.682077 -0.815979 0.123294 0.034898 -0.170326 0.425091 -0.799036 0.933596 -0.101842 0.894751 0.012249 -0.354408 -0.114454 0.056652 -0.055610 -0.854126 -0.102770 0.190914 -0.287762 0.117655
中国 -0.275820 0.079973 -0.094435 0.106165 -0.546680 1.017176 0.349906 0.402048 0.186097 0.420399 -0.233480 0.497387 -0.219893 -1.158221 0.412181 -0.082214 -0.412687 -1.016432 -0.045931 0.178530 0.441604 1.131556 -0.854777 -0.070948 -0.318747 -0.102809 0.863571 0.779832 -0.498635 0.339361 -1.202805 -1.244245 -0.325027 0.200588 -0.161343 -0.060503 -0.901178 1.164434 -0.046649 1.644565 -0.181985 0.103562 0.376230 0.004398 0.289967 -1.466714 -1.486155 0.150233 -0.563499 -0.786089
教育 -0.897025 -0.247004 0.373730 0.117715 -0.077005 0.676578 1.179690 0.268493 0.325810 0.638263 -0.730948 0.517021 -0.434162 -0.643028 0.339617 -0.280481 -0.422221 -1.151186 -0.196757 -0.055116 0.338142 0.335378 0.021009 -0.951127 -0.132237 -0.328665 0.248144 0.210927 -0.283473 -0.157096 -1.000188 -0.724549 0.068894 0.083408 -0.190161 0.205379 -0.617095 0.983738 -0.373838 0.831725 0.460142 -0.704832 0.584805 0.106308 0.041595 -1.259950 -0.405590 -0.051525 -0.150550 -0.603349
大药房 -0.892042 0.182271 -0.497385 -0.571064 0.357987 0.237839 -0.853366 -0.180330 0.418609 -0.064222 -0.808845 0.062204 -0.147839 -1.237604 0.277507 -0.208669 -0.414631 -0.636950 -0.128805 0.491161 -0.080242 0.813279 -0.785569 -0.521654 -0.813980 -0.541729 -0.877713 0.645141 0.403360 0.117008 -0.422441 -1.113520 0.507590 0.038536 -0.621755 0.497146 -1.086792 0.512480 0.068297 0.793376 0.372491 0.412919 0.283068 0.828301 0.012264 -1.051848 -0.454098 0.267301 -0.096904 -0.341172
电器 0.059047 -0.024576 -0.869895 -0.412628 -0.007234 0.554052 -0.050932 0.289190 0.354812 1.247281 -0.728397 -0.743822 -0.930505 -1.375909 0.558564 -0.452213 -0.535338 -0.740191 0.033782 0.448753 0.008782 0.985189 -0.286581 -0.105407 -0.649226 -0.152006 0.088969 -0.291708 -0.255139 -0.350542 -0.410978 -0.146825 0.311591 -0.136682 -0.076276 0.568275 -0.857626 0.783802 -0.186668 1.232382 -0.534592 0.062351 0.683530 0.178922 -0.082440 -1.273833 -0.507215 -0.183366 -0.000983 -0.219829
宾馆 -0.442967 0.663429 0.446152 0.098900 -0.157125 0.332354 0.363355 0.377666 0.114828 0.478883 -1.150501 -0.022224 -0.326697 -0.795421 0.631386 -0.118549 -0.485233 -0.514273 -0.153683 -0.211803 0.541462 -0.049783 -0.741653 -0.801148 0.285634 -0.567745 -0.209930 0.042781 0.127636 0.067203 -0.551617 -0.874097 0.000654 0.461776 -0.364942 0.037344 -0.905727 0.848203 -0.378587 0.545858 0.300597 -0.933437 0.531778 0.636236 0.183189 -0.768522 0.058573 0.088615 0.155542 0.136377
佛山市 -0.120056 -0.072467 -0.474525 0.009827 0.147893 0.499294 1.260237 0.348168 0.395357 1.931517 -0.805300 -0.226821 -1.054155 -1.074571 0.451097 -0.892202 -0.412080 -1.259947 -0.191364 0.301269 -0.084089 1.385911 0.188505 -0.989846 -0.924200 0.191860 0.730376 -1.018417 -0.888590 -0.328557 -1.128411 -0.277972 -0.060487 -0.350649 0.180309 0.875491 -0.501442 1.375500 -0.122215 1.701659 -0.514894 -0.410990 0.578170 -0.549265 -0.098079 -1.598293 -0.497300 -0.425179 -0.249025 -0.232380
公寓 -0.505264 0.619929 0.272249 -0.248802 -0.404206 0.357776 0.263090 0.536691 0.080360 0.274452 -0.812603 0.379214 -0.063746 -0.728165 0.577844 -0.068233 -0.517552 -0.453914 -0.115550 -0.162967 0.409853 0.179073 -0.730323 -0.486174 0.002117 -0.417484 -0.257864 0.489341 0.206196 0.107924 -0.718011 -0.935769 0.190278 0.267888 -0.256219 0.065503 -0.805406 0.817709 -0.221282 0.871635 0.188156 -0.499879 0.159004 0.507474 0.151637 -0.849390 -0.031684 0.252273 -0.099226 0.047501
自行车 -0.627966 1.233410 0.967522 -1.263357 -1.309356 -0.535690 0.551258 1.255777 -0.891344 2.275335 -0.514857 0.335724 -1.002252 -0.799359 1.073860 0.060739 -1.216849 1.456449 0.112286 -0.355779 1.348974 0.073344 -0.781278 0.124835 -1.701757 -0.665616 -1.494057 1.287449 -0.466179 -0.756179 -0.736064 -0.455676 0.721483 -0.936778 -0.100105 1.987809 -1.934659 1.839803 0.404710 1.452024 -0.543569 0.267969 -1.695578 -0.966877 -0.913228 -1.498221 0.795115 1.161973 -0.835488 0.756292
电子 -0.322338 0.117668 -0.700581 -0.447455 -0.248956 0.727129 0.609914 0.543697 0.228519 1.006891 -0.447439 0.178711 -0.607565 -1.465442 0.486297 -0.596000 -0.882546 -1.162128 -0.215133 0.468235 0.093541 1.144740 -0.334177 -0.416718 -0.876955 -0.038921 0.549015 0.059833 -0.705420 -0.267484 -1.168523 -0.507519 0.260064 -0.330522 0.017594 0.347319 -0.559289 1.102076 0.288975 1.944658 -0.344337 0.039431 0.761926 0.332660 0.248467 -1.809142 -0.963140 -0.325085 -0.285396 -0.835274
东莞 -0.032041 0.759713 -0.652181 -0.435776 -0.117666 0.519634 0.650693 0.533658 0.179277 0.916601 -0.274473 0.705567 -0.252111 -1.413460 -0.059354 -0.541119 -0.365134 -1.151446 -0.304591 0.155495 -0.268632 1.266135 -0.682135 -0.527433 -0.585608 -0.179835 0.464310 -0.249909 -0.599330 0.019421 -1.197257 -0.758540 -0.095375 -0.000817 -0.033041 0.412255 -0.486843 0.737223 -0.218307 1.552056 -0.172810 0.130484 0.181632 0.225121 0.297245 -1.697741 -1.151480 0.047351 -0.177883 -0.489690
东门 -0.363771 0.531245 0.270188 -0.354575 -0.406208 0.201534 0.402004 0.516585 0.056034 0.689903 -0.840198 0.134138 -0.239585 -0.696419 0.656981 -0.221599 -0.221851 -0.240655 -0.059251 0.024361 0.348707 0.373393 -0.638779 -0.332392 -0.232524 -0.330473 -0.286308 0.367320 0.162650 -0.003493 -0.687196 -0.869639 0.108436 0.107610 -0.147823 0.448709 -0.806584 0.978314 -0.205815 0.922042 0.057991 -0.397664 -0.132222 0.023465 -0.061932 -0.848615 -0.078975 0.241509 -0.275276 0.192428
幼儿园 -0.597354 0.042010 0.295722 -0.011582 0.026533 0.228621 0.612500 0.226875 0.221324 0.840263 -1.022681 0.004584 -0.424971 -0.667308 0.531672 -0.244631 -0.019638 -0.501716 0.010712 -0.020817 0.113893 0.491902 -0.238929 -0.586871 -0.231335 -0.265976 -0.181653 0.061570 0.001303 -0.206044 -0.658850 -0.617886 0.111361 0.294667 -0.265111 0.662316 -0.740281 0.889970 -0.333655 0.569127 0.245891 -0.520308 -0.071913 -0.166722 -0.134030 -0.809398 -0.153829 0.300367 -0.112508 0.046264
投资 -0.509169 -0.221938 -0.554579 -0.233306 -0.210878 0.881332 0.980415 0.339764 0.133528 1.179194 -0.735188 0.191246 -0.834691 -1.543458 0.454889 -0.635780 -0.795689 -1.620664 -0.627929 0.462731 0.286807 1.064369 -0.095099 -1.030757 -0.764498 0.050232 0.936017 -0.386200 -1.122707 -0.177909 -1.179020 -0.647732 0.036803 -0.540640 0.072993 0.543893 -0.656523 1.378112 -0.008296 2.034860 0.023467 -0.352832 1.162672 0.170253 0.084604 -2.038716 -0.975789 -0.456583 -0.355205 -0.970975
西门 -0.323438 0.492953 0.161784 -0.373850 -0.342661 0.163471 0.346096 0.512378 0.080276 0.745086 -0.831501 0.094088 -0.290998 -0.731582 0.633036 -0.257845 -0.251674 -0.193652 -0.034773 0.047598 0.299814 0.419444 -0.560064 -0.297005 -0.335444 -0.334162 -0.301403 0.315454 0.178180 -0.060958 -0.624542 -0.785053 0.169279 0.031823 -0.146400 0.467111 -0.783277 0.984641 -0.123443 0.913076 -0.003794 -0.323634 -0.154419 0.024596 -0.087980 -0.850896 -0.054600 0.225462 -0.265182 0.188933
实业 -0.497815 0.073474 -0.742390 -0.411425 -0.012652 0.603048 0.588408 0.298649 0.228513 0.918939 -0.611980 0.155331 -0.567108 -1.388183 0.420933 -0.672484 -0.827892 -1.136370 -0.201289 0.432213 0.039795 1.021278 -0.067029 -0.590546 -0.764911 -0.058045 0.470885 -0.152534 -0.757626 -0.320884 -1.093914 -0.377654 0.278581 -0.397065 0.019648 0.437020 -0.560001 0.995867 0.347543 1.647419 -0.125448 -0.072400 0.767674 0.376702 0.146807 -1.719697 -0.726447 -0.373515 -0.191057 -0.784179
美 -0.529128 0.030430 -0.478450 -0.322023 0.282519 0.394070 -0.173981 0.130927 0.288252 0.361603 -0.646973 -0.041545 -0.588654 -0.918421 0.220532 -0.310442 -0.608699 -0.907946 -0.192165 0.257319 0.269463 0.452317 -0.060530 -0.734752 -0.620486 -0.160265 -0.034671 -0.069749 0.065801 0.043447 -0.522541 -0.551249 0.283281 0.030586 -0.276773 0.257278 -0.808576 0.592239 -0.015319 0.928087 0.106337 -0.227798 0.554891 0.740134 0.105715 -0.967347 -0.388661 -0.082908 0.061348 -0.513694
专业 -1.672557 -0.111983 0.191559 -0.144413 0.936268 -0.185490 -0.473371 -0.366138 0.909532 0.096805 -1.815022 0.154954 -0.547991 -0.791865 0.329139 -0.352531 -0.197706 -0.705269 0.174974 0.000102 0.205087 0.133490 0.029691 -1.752404 -0.393727 -0.329930 -1.082596 0.534551 1.208866 0.081956 -0.586813 -0.897054 0.359947 0.791563 -0.801958 0.583371 -1.649904 0.777279 0.045754 -0.254141 1.111925 -0.836955 -0.185658 0.881521 -0.280916 -0.374421 0.362289 0.578943 0.054576 0.074571
花园 -0.431424 0.747117 0.566826 -0.326519 -0.493161 0.265676 0.359342 0.618741 -0.034645 0.573442 -1.001094 0.240872 -0.211472 -0.491981 0.672437 -0.084358 -0.152365 0.058779 0.160153 -0.159182 0.528670 0.160941 -0.850852 -0.303481 -0.123181 -0.378976 -0.499536 0.539977 0.265065 0.092058 -0.551624 -0.901688 0.101714 0.259059 -0.121150 0.549324 -0.884490 1.026821 -0.409497 0.904488 0.000875 -0.404545 -0.259528 -0.059457 -0.187559 -0.655286 0.176626 0.609946 -0.337942 0.474739
2 -1.369751 0.919383 -0.245008 -0.779972 -0.229080 -0.367431 -0.533493 0.567816 0.011028 -0.768050 -1.534921 0.739295 0.350541 -1.162526 0.776170 -0.382294 -0.896884 -0.321358 0.441145 0.272588 0.152808 0.364961 -1.359757 -0.624885 -0.496365 -0.470860 -1.807088 1.978264 1.245437 -0.027227 -0.426255 -1.818349 0.199838 -0.230965 -0.908309 0.474916 -1.829515 0.770921 1.036566 0.438673 0.827484 -0.109493 -0.161727 1.551373 -0.159716 -0.898325 0.275949 0.087068 -0.523605 0.029159
集团 -0.308367 0.102159 -0.227921 -0.238435 -0.278031 0.822208 0.601578 0.539929 0.076682 0.654222 -0.364143 0.373078 -0.604193 -1.164835 0.372126 -0.415511 -0.593435 -1.295305 -0.377236 0.352775 0.382229 0.945975 -0.436931 -0.677865 -0.568945 0.031743 0.644739 0.141171 -0.451891 0.193702 -1.098978 -0.936306 -0.102748 -0.273344 -0.040035 0.186359 -0.732305 1.163255 -0.106010 1.909321 -0.229981 -0.151688 0.766499 0.188340 0.174952 -1.541260 -1.027196 -0.226941 -0.439716 -0.790718
达 -0.258202 -0.089461 -0.547870 -0.258425 -0.025101 0.752072 0.415315 0.350185 0.149003 0.846834 -0.518742 -0.202685 -0.855186 -1.124805 0.250497 -0.491233 -0.653049 -1.212852 -0.407795 0.535399 0.413354 1.004920 -0.124873 -0.685825 -0.655709 -0.017081 0.657440 -0.512906 -0.700319 0.062502 -0.762225 -0.438862 0.013995 -0.300721 0.060350 0.440426 -0.761542 1.015891 -0.160653 1.735091 -0.208182 -0.227912 0.873621 0.352199 0.044060 -1.462157 -0.941486 -0.391827 -0.127076 -0.657898
饭店 -0.402114 0.463465 0.092198 -0.179833 -0.009494 0.072548 -0.008049 0.168620 0.092382 0.447239 -1.006763 -0.121108 -0.217011 -0.721988 0.503142 -0.113409 -0.078035 -0.188013 0.069463 -0.000936 0.145484 0.348071 -0.607357 -0.398635 -0.124603 -0.301705 -0.452808 0.205454 0.243965 -0.023289 -0.365479 -0.732918 0.134256 0.359473 -0.368940 0.484932 -0.908363 0.662290 -0.174188 0.408432 0.228422 -0.360029 -0.077484 0.258054 -0.049294 -0.547905 -0.091041 0.313021 0.006231 0.192011
商店 -0.279947 0.046183 -0.454080 -0.221762 0.109470 0.259557 0.009616 0.070370 0.308697 0.867894 -1.031547 -0.580620 -0.602849 -1.025473 0.544235 -0.365897 -0.071102 -0.610446 0.065771 0.314909 0.041563 0.723887 -0.373570 -0.358989 -0.434465 -0.206874 -0.190316 -0.194840 0.076748 -0.196543 -0.408444 -0.508116 0.229700 0.074831 -0.244284 0.781961 -0.995043 0.679823 -0.338105 0.769022 -0.043638 -0.163584 0.178836 0.075962 -0.175233 -0.927182 -0.290623 0.148042 -0.058883 0.046130
1 -1.515848 0.917598 -0.023939 -0.760761 -0.141024 -0.456292 -0.528059 0.567421 0.015687 -0.769477 -1.661495 0.760085 0.324744 -1.082060 0.742878 -0.411272 -0.816332 -0.225705 0.493008 0.223522 0.211957 0.307556 -1.314443 -0.711997 -0.438337 -0.479796 -1.975218 2.052813 1.324892 -0.008640 -0.464213 -1.775086 0.148846 -0.173824 -0.905236 0.521693 -1.961074 0.888060 1.060962 0.270247 0.915513 -0.254877 -0.246643 1.453280 -0.250814 -0.817682 0.403053 0.171085 -0.541261 0.145436
商务 -0.696478 0.236525 0.542303 -0.028441 -0.653116 0.725658 1.084245 0.748405 0.393384 0.652001 -0.842138 0.319108 -0.089842 -0.627852 0.713585 0.001670 -0.815646 -1.040181 -0.175963 -0.695324 0.723619 -0.195701 -0.258900 -0.825822 0.325778 -0.534158 0.338446 0.415234 -0.049838 -0.108300 -0.955414 -0.818553 0.229200 0.324984 -0.299244 -0.561155 -0.779177 0.970017 -0.204332 0.650321 0.471975 -1.275251 0.679810 0.791401 0.070774 -1.159016 -0.116239 -0.259757 0.210573 -0.128687
小吃 -1.095526 1.515654 -0.033987 -0.131460 1.040507 -0.149601 -0.922663 -0.300843 -0.184530 0.472570 -0.769928 -0.051579 0.067318 -1.018449 -0.079951 0.283131 0.729699 0.011152 -0.205237 -0.009503 -0.342812 1.249734 -0.460454 -0.516933 0.295886 -0.089358 -0.193176 0.626232 -0.281427 0.548481 -1.333548 -0.813895 0.574502 0.757143 -0.188728 1.373034 -1.943594 1.739973 0.506640 1.346696 0.662361 -1.122764 0.606163 -0.219674 0.469848 -0.976118 -0.889956 0.665338 0.336452 -0.175791
药店 -0.780671 0.412154 -0.516975 -0.581599 0.213495 0.143513 -0.503335 -0.072152 0.254190 0.138062 -0.811775 0.165869 -0.053812 -1.230710 0.277852 -0.256558 -0.285289 -0.571699 -0.105055 0.444438 -0.178380 0.772673 -0.822389 -0.534837 -0.605301 -0.366046 -0.660331 0.463931 0.234276 0.064071 -0.669450 -1.056431 0.377005 0.150683 -0.465088 0.611257 -0.975565 0.492088 -0.013388 0.793338 0.422982 0.211111 -0.015314 0.637758 0.032185 -1.042370 -0.454150 0.334401 -0.145314 -0.235381
租赁点 -1.718851 1.148751 0.385967 -0.534155 -1.258201 0.698356 1.566972 1.068143 0.162238 -0.046182 -2.167181 0.736025 0.366932 -0.278157 0.654635 -1.505748 0.774912 0.339557 0.699823 0.154570 1.380688 0.129604 -0.448238 -0.467819 -0.452097 -0.351311 -1.804839 0.681623 0.640568 0.469639 -0.695688 -0.890140 -0.065883 -0.199191 1.108792 1.888084 -2.120635 2.021736 -0.068458 2.375978 0.347520 -1.355533 -0.223017 -0.281924 -0.873041 -1.072207 0.320934 0.931285 -1.369563 1.055429
四川 -0.290546 0.048176 -0.431722 -0.175814 -0.008119 0.636034 0.586493 0.370909 0.141660 0.801935 -0.556248 0.119774 -0.593102 -1.004200 0.278920 -0.442171 -0.534479 -1.114726 -0.222561 0.237745 0.284986 0.844078 -0.121981 -0.679139 -0.565464 -0.015746 0.491592 -0.223540 -0.552015 0.037337 -0.711554 -0.589330 -0.007648 -0.323257 -0.037001 0.300932 -0.672330 1.076469 0.037283 1.525501 -0.236020 -0.217117 0.746791 0.212142 0.019367 -1.371081 -0.791823 -0.282856 -0.193971 -0.571908
物流 -0.344112 0.125596 -0.397712 -0.275284 -0.141004 0.555416 0.631688 0.429540 0.241879 0.714884 -0.374335 0.472488 -0.481370 -1.077769 0.252711 -0.542560 -0.681204 -1.033665 -0.262230 0.214295 0.146826 0.806490 -0.121513 -0.544833 -0.658374 -0.174638 0.409546 0.049808 -0.476271 -0.144107 -1.008916 -0.479297 0.080150 -0.242118 -0.003530 0.196305 -0.452210 0.889522 0.171891 1.418719 -0.127689 -0.107439 0.587004 0.239900 0.117185 -1.503959 -0.670921 -0.252626 -0.241717 -0.645762
烟酒 -0.164522 0.175068 -0.590049 -0.477707 0.140053 0.151163 -0.595285 -0.101087 0.391826 0.714440 -0.906393 -0.650464 -0.639312 -1.012321 0.635488 -0.151507 -0.273548 -0.358736 0.179235 0.441600 0.032903 0.544893 -0.496364 -0.064474 -0.683497 -0.196574 -0.521574 0.147581 0.297063 -0.235942 -0.145719 -0.413264 0.363439 0.199019 -0.451992 0.795560 -1.123602 0.550112 -0.098791 0.473491 -0.036594 -0.051876 0.122575 0.248375 -0.260339 -0.728134 -0.170229 0.116852 0.219180 0.012846
会所 -1.077808 0.156873 0.326196 -0.036636 0.491943 0.157267 -0.096216 0.143171 0.472388 0.277372 -1.589996 0.178274 -0.551798 -0.648073 0.303824 -0.109626 -0.419923 -0.380381 -0.099766 -0.169007 0.476580 0.177557 -0.109808 -1.205008 -0.084721 -0.457766 -0.763423 0.119278 0.706448 0.247228 -0.533015 -0.838520 0.201975 0.745164 -0.618050 0.406631 -1.395370 0.799704 -0.210239 0.090093 0.792064 -0.944595 0.100093 0.865984 0.018109 -0.528380 0.101970 0.388174 0.185056 -0.038391
经营部 -0.030939 0.078642 -0.717794 -0.263775 0.135916 0.411023 0.050181 0.275422 0.139491 1.098733 -0.837151 -0.779459 -0.873831 -1.145880 0.528748 -0.443121 -0.164810 -0.832047 -0.080795 0.519737 0.151431 0.787193 -0.258807 -0.522870 -0.520553 0.173900 0.269483 -0.530257 -0.208249 -0.091633 -0.493341 -0.462103 0.108742 0.038120 -0.067693 0.727548 -0.955294 0.807134 -0.416138 1.330556 -0.351605 -0.253567 0.441147 -0.006250 -0.116980 -0.951549 -0.565191 -0.101872 -0.035938 -0.146414
上海市 -0.572155 0.167441 0.492726 0.076943 0.118820 0.253699 1.651734 0.125953 0.373710 1.519710 -1.138509 0.335179 -0.434756 -0.638695 0.500020 -0.715340 0.205529 -0.766225 0.075554 -0.242885 -0.366930 0.607593 -0.059136 -0.973661 -0.137060 -0.077464 0.091955 -0.358541 -0.248660 -0.583552 -1.395903 -0.571882 -0.009417 0.470628 -0.058165 1.009777 -0.404843 1.056993 -0.485346 0.670914 0.275135 -0.612745 -0.555709 -0.849824 -0.286149 -1.083534 0.147100 0.539516 -0.238599 0.173943
地产 -0.461955 0.237990 -0.176908 -0.242768 0.056332 0.219625 0.078642 0.179833 0.135593 0.441542 -0.713156 0.031098 -0.267339 -0.832736 0.321367 -0.266339 -0.268353 -0.509726 -0.016010 0.140551 0.093309 0.583652 -0.412326 -0.459213 -0.380693 -0.183434 -0.220707 0.146950 0.004017 -0.013070 -0.517104 -0.628896 0.128884 0.068832 -0.260906 0.419531 -0.734155 0.672777 -0.027006 0.705431 0.124239 -0.154799 0.164372 0.280646 -0.022076 -0.823689 -0.345537 0.117191 -0.101179 -0.125801
营业厅 -0.700865 0.515915 0.504676 -0.602273 -0.400181 0.114181 -0.003340 0.194781 0.192266 0.727118 -1.472728 0.054623 -0.349059 -0.643454 0.537740 -0.154264 0.490690 0.031429 -0.080721 -0.044065 -0.366580 0.989990 -1.270279 -0.153269 -0.270358 -0.104958 -0.446896 0.008443 0.057024 0.120284 -1.132485 -1.072614 0.157339 0.565728 -0.285269 0.752990 -0.759932 1.361877 -0.275303 1.015344 -0.044654 -0.121624 -0.648066 0.039783 -0.051730 -0.734962 -0.465577 0.858995 -0.409105 0.233674
生活 -0.791347 0.209872 -0.120791 -0.593508 0.048825 0.138349 -0.905732 -0.362567 0.659247 -0.091010 -1.346961 -0.222954 -0.178774 -0.873870 0.575082 0.097867 -0.002258 -0.586544 0.096591 0.027471 0.218481 0.280371 -0.759105 -0.466344 -0.845661 -0.731348 -1.262737 0.648944 0.694788 -0.203513 -0.595191 -1.182467 0.651716 0.191202 -0.816564 0.741580 -1.319672 0.438439 -0.038047 -0.011496 0.444554 0.067136 -0.145720 0.730351 -0.092553 -0.876249 0.503622 0.574929 0.209025 0.018893
房产 -0.423378 0.204301 -0.211926 -0.249056 0.071822 0.177766 0.048463 0.147973 0.163265 0.502134 -0.807350 -0.041171 -0.348272 -0.826103 0.383788 -0.262075 -0.243071 -0.490787 0.000998 0.151167 0.073399 0.590449 -0.363930 -0.464458 -0.433834 -0.172758 -0.242304 0.100328 0.064414 -0.092027 -0.445037 -0.615916 0.190037 0.030782 -0.290371 0.504356 -0.775377 0.678080 -0.020455 0.700340 0.126668 -0.125518 0.099738 0.226574 -0.055100 -0.811860 -0.279408 0.127074 -0.110167 -0.107391
文化 -1.105128 -0.589528 0.288797 0.064188 0.260633 0.777617 1.615551 0.126932 0.462555 1.223750 -0.936189 0.249755 -0.741643 -0.534655 0.324872 -0.594119 -0.385060 -1.155337 -0.163260 -0.092458 0.276816 0.248697 0.413888 -1.042448 -0.227754 -0.199527 0.458929 -0.232863 -0.649017 -0.295477 -1.253515 -0.368660 0.121486 -0.022935 -0.022816 0.471741 -0.442958 1.381362 -0.230011 0.906075 0.385982 -0.732593 0.754529 -0.277176 -0.153173 -1.451983 -0.190769 -0.149802 -0.292025 -0.543046
银行 -0.788935 1.213840 -1.167492 0.029085 0.019538 -0.100886 1.174642 0.142636 -0.163438 1.854934 -0.448221 1.673606 0.942945 -2.056387 -0.257969 -0.601620 -0.035693 -1.434649 -0.369130 -0.297742 -1.266785 1.136555 -1.621192 -0.690401 -0.533440 -0.082360 -0.216130 -0.726906 -1.080805 -0.890197 -2.680529 -0.891366 0.467744 0.758778 0.216338 1.406255 0.191834 0.359947 -1.064055 0.588520 0.614447 -0.066447 -1.249393 0.165666 0.813268 -1.816852 -1.225472 1.103146 -0.146191 -0.031669
艺术 -1.029945 -0.425209 0.559619 0.169241 0.187546 0.588055 1.167142 0.150195 0.409776 0.612926 -0.907425 0.393258 -0.567049 -0.393547 0.326889 -0.222533 -0.354964 -0.972021 -0.064937 -0.052139 0.578725 0.298784 0.256275 -1.055524 -0.058759 -0.354403 0.129748 0.186730 -0.189436 -0.056097 -0.845390 -0.577280 0.033690 0.117011 -0.207964 0.166222 -0.743832 1.169979 -0.361287 0.477325 0.431442 -0.857101 0.642362 0.156532 -0.096661 -1.051048 -0.293249 -0.075348 -0.033105 -0.476663
旗舰店 -0.743578 0.294484 -0.129202 -0.262861 0.170147 0.097373 -0.166129 0.044245 0.268440 0.238475 -1.065536 0.149772 -0.243977 -0.929178 0.329948 -0.196260 -0.183026 -0.483792 -0.009021 0.122807 0.123955 0.527538 -0.472530 -0.642605 -0.381217 -0.310028 -0.485675 0.299491 0.373374 0.051527 -0.501276 -0.926183 0.203890 0.282674 -0.464607 0.556199 -1.088753 0.662749 -0.016862 0.524686 0.482909 -0.280865 -0.071776 0.535393 0.039400 -0.755189 -0.312355 0.329616 -0.096225 -0.158238
北京市 -0.813258 -0.237947 0.450042 0.100790 0.231765 0.203577 1.277231 0.033366 0.444124 1.444251 -1.330552 -0.086465 -0.606714 -0.525042 0.901266 -0.685171 0.096756 -0.818901 0.189951 0.021937 -0.349405 0.704164 0.069970 -0.974011 -0.394490 0.095543 -0.173418 -0.050713 0.027330 -0.715859 -1.155394 -0.603020 0.171441 0.311641 -0.192022 1.053935 -0.652263 1.322110 -0.135763 0.741648 0.086259 -0.559919 -0.404567 -0.853833 -0.403277 -0.884057 0.321320 0.392485 -0.364057 0.161723
小区 -0.434338 0.605653 0.460727 -0.296680 -0.421125 0.226743 0.415179 0.580146 -0.023588 0.653731 -1.006591 0.142600 -0.328306 -0.497717 0.630708 -0.177169 -0.111082 0.001037 0.166997 -0.081273 0.492541 0.290214 -0.694936 -0.316404 -0.221727 -0.314643 -0.455569 0.462631 0.211653 0.045290 -0.499046 -0.802233 0.091569 0.196456 -0.136142 0.664759 -0.926808 1.042324 -0.334940 0.933137 -0.015386 -0.380524 -0.266231 -0.141989 -0.238562 -0.664028 0.110669 0.527859 -0.332229 0.378591
设备 -0.185023 0.073342 -0.760295 -0.389864 -0.021469 0.753121 0.758702 0.529420 0.103392 1.286129 -0.506977 0.009956 -0.856708 -1.468063 0.467631 -0.644480 -0.669824 -1.347912 -0.256379 0.407190 0.198280 1.062093 -0.187483 -0.642572 -0.849097 0.175995 0.773802 -0.226392 -0.701043 -0.233881 -1.106347 -0.606037 0.112538 -0.249460 0.061252 0.418574 -0.677066 1.233765 0.100122 2.043033 -0.447345 -0.118286 0.816412 0.148599 0.126942 -1.727580 -1.029243 -0.391178 -0.207580 -0.860418
生活馆 -1.331621 0.085817 0.090464 -0.193281 0.578852 0.094885 -0.456968 -0.023527 0.534584 0.014370 -1.524538 0.206466 -0.446238 -0.816290 0.337975 -0.247255 -0.361008 -0.547824 0.055457 -0.013418 0.351391 0.189014 -0.154233 -1.151632 -0.643963 -0.515800 -1.024136 0.434063 0.786444 0.105480 -0.402848 -1.047233 0.332818 0.575954 -0.657424 0.638445 -1.472302 0.715403 -0.050769 0.114535 0.857547 -0.578591 -0.032488 1.010319 -0.071579 -0.622100 0.024056 0.558952 0.016899 -0.209882
发展 -0.386505 -0.079534 -0.455104 -0.202457 -0.097090 0.763849 1.039154 0.396152 0.066646 1.139523 -0.482183 0.173196 -0.754943 -1.075198 0.414340 -0.688590 -0.715767 -1.526120 -0.304242 0.445533 0.298469 0.982682 -0.034184 -0.822613 -0.617176 0.124052 0.812874 -0.287401 -0.893181 -0.119614 -1.049522 -0.513036 -0.052727 -0.573616 0.163631 0.367843 -0.558157 1.300449 -0.055494 1.980116 -0.382483 -0.255563 0.916424 0.033706 -0.045366 -1.753612 -0.897350 -0.460269 -0.283401 -0.860026
建材 -0.099349 0.108478 -0.588454 -0.366100 0.037060 0.410575 0.252907 0.273034 0.197493 1.030475 -0.547531 -0.206214 -0.714345 -1.032073 0.417508 -0.449618 -0.534564 -0.762677 -0.048572 0.304561 0.076286 0.653570 -0.159789 -0.308107 -0.725493 -0.023324 0.186681 -0.103666 -0.245421 -0.275964 -0.549955 -0.265107 0.158771 -0.130916 -0.059578 0.417374 -0.636771 0.779245 0.056609 1.188111 -0.320575 -0.085553 0.521006 0.119459 -0.070968 -1.142047 -0.501712 -0.265578 -0.008942 -0.351018
食品 -0.356441 0.105286 -0.547473 -0.368696 0.189397 0.289418 0.022813 0.093492 0.312981 0.631483 -0.588574 0.043034 -0.454522 -0.967044 0.257690 -0.367939 -0.526185 -0.587328 -0.047942 0.254971 0.008781 0.614139 -0.182507 -0.337427 -0.664530 -0.192056 -0.151627 0.037787 -0.104906 -0.203599 -0.557332 -0.285905 0.268955 -0.100469 -0.178899 0.393293 -0.622588 0.592136 0.197321 0.744472 -0.039034 -0.010242 0.428323 0.377759 0.015323 -1.039327 -0.288682 -0.155456 0.086914 -0.362125
中国移动 -0.966949 0.384473 0.021156 -0.726144 -0.116367 -0.155910 -0.614278 -0.150089 0.193621 0.310709 -1.770353 -0.135264 -0.034682 -0.623201 0.248879 -0.130366 0.319992 0.227302 0.323891 0.218466 -0.061632 0.436560 -1.031808 -0.289703 -0.471054 -0.575041 -1.055739 0.620514 0.499412 -0.079394 -0.295737 -1.457380 0.404994 0.220740 -0.457450 1.107956 -1.442624 0.974597 0.157956 0.325713 0.560263 0.168176 -0.392215 0.500499 -0.065472 -0.625910 -0.650206 0.881675 -0.102684 0.299499
校区 -0.343347 0.669312 0.916712 0.258645 -0.690466 0.795110 1.209381 0.738892 0.092252 0.837507 -1.120481 0.378104 -0.382479 -0.853365 0.997115 -0.148985 -0.466670 -0.852408 -0.122300 -0.342878 0.725518 -0.036563 -0.953474 -0.805388 0.384417 -0.506103 0.349257 0.328257 -0.005838 0.018909 -0.946611 -1.218846 -0.147694 0.440918 -0.311268 -0.037351 -0.975926 1.256690 -0.587586 1.152645 0.157491 -1.179835 0.689815 0.372426 0.177054 -1.165249 -0.302663 0.101400 -0.121773 -0.056900
沙县 -0.243897 1.552840 -0.072075 0.319717 1.191790 -0.042815 -0.504410 -0.448867 -0.311377 0.457319 -0.905241 -0.702732 0.418440 -1.738426 0.523636 -0.496708 0.387088 -0.761557 -0.145098 0.532490 -0.205343 0.533365 -1.130222 -0.282431 0.315769 -0.307668 -0.899129 0.927355 -0.686291 -0.139531 -1.770939 -0.599988 -0.061778 0.860173 0.032173 1.132339 -2.382706 2.023618 0.622821 1.171237 0.268980 -1.059978 0.642465 -0.669163 0.124448 -0.746365 -0.978036 0.542130 -0.616730 -0.106122
技术 -0.347210 0.005684 -0.040698 0.008392 -0.281126 0.900906 1.336522 0.598226 0.214978 1.156057 -0.512342 0.365266 -0.640867 -1.096263 0.479064 -0.458215 -0.752631 -1.342543 -0.258090 0.013132 0.370878 0.612841 -0.100501 -0.826454 -0.328278 -0.135016 0.807944 -0.128369 -0.658100 -0.226783 -1.143606 -0.556548 0.005318 -0.093934 -0.028109 -0.004833 -0.543187 1.180637 -0.103345 1.641383 -0.079574 -0.626568 0.944980 0.164479 0.175137 -1.637885 -0.800638 -0.370581 -0.165421 -0.778992
时尚 -1.000830 0.299323 0.119968 -0.227249 0.223906 -0.038334 -0.331511 -0.001344 0.423642 0.168959 -1.362544 -0.003596 -0.233895 -0.690879 0.449627 -0.118669 -0.170629 -0.307114 0.079304 -0.061377 0.205669 0.234616 -0.409842 -0.810006 -0.191429 -0.382945 -0.800502 0.457679 0.761832 0.050614 -0.403212 -0.894127 0.303030 0.557696 -0.597614 0.448739 -1.281290 0.626573 -0.061334 0.089191 0.645411 -0.572357 -0.196543 0.685448 -0.056509 -0.467552 0.103695 0.435684 0.091295 0.178089
培训 -1.350584 -0.732774 0.703251 0.534608 0.004877 0.762553 1.477653 0.229040 0.547816 0.614335 -0.792202 0.626828 -0.675701 -0.528773 0.181378 -0.419007 -0.376530 -1.469200 -0.088090 -0.240985 0.593775 0.317252 0.300559 -1.253124 -0.292119 -0.475687 0.291322 0.391991 -0.323864 -0.127350 -0.982171 -0.657272 -0.089129 0.056025 -0.253386 0.254489 -0.802387 1.146538 -0.358864 0.517160 0.774181 -0.996700 0.837081 0.159305 -0.213834 -1.335113 -0.638946 -0.171129 -0.198710 -0.773362
咨询 -0.510522 -0.128270 -0.267756 -0.094343 -0.252687 1.041034 1.072805 0.562495 0.168289 0.916075 -0.491042 0.504044 -0.716475 -1.355119 0.419318 -0.541935 -0.974525 -1.744046 -0.506023 0.234641 0.516927 0.770303 -0.116573 -1.057090 -0.525446 -0.103139 0.968054 -0.046313 -0.832927 -0.047565 -1.217216 -0.794917 -0.029688 -0.426246 -0.012249 0.078393 -0.566662 1.354533 -0.069723 1.977698 -0.144718 -0.462055 1.302978 0.394545 0.267798 -1.872835 -0.977689 -0.453663 -0.304916 -1.081551
东 -0.371143 0.199146 -0.285182 -0.308754 -0.106680 0.387035 0.381759 0.320029 0.162312 0.732207 -0.686945 -0.035953 -0.426484 -0.819451 0.446092 -0.436368 -0.416323 -0.672582 -0.020025 0.231381 0.163368 0.594041 -0.280413 -0.428544 -0.465658 -0.129629 0.015458 -0.035555 -0.204477 -0.136079 -0.649423 -0.513926 0.153584 -0.115943 -0.071164 0.526485 -0.715856 0.868356 -0.003005 1.101177 -0.136735 -0.202778 0.301954 0.171096 -0.066147 -1.043742 -0.348223 -0.005260 -0.174619 -0.137060
纺织 -0.170799 0.124077 -0.451471 -0.287975 -0.046085 0.402712 0.458763 0.314911 0.127587 0.900314 -0.502332 0.028829 -0.503582 -0.988116 0.357764 -0.436406 -0.439977 -0.761214 -0.177305 0.277013 0.052523 0.784683 -0.204681 -0.379947 -0.595692 -0.023971 0.291124 -0.168358 -0.402959 -0.186850 -0.705278 -0.362507 0.103030 -0.223465 0.006397 0.356814 -0.479629 0.794980 0.089353 1.237644 -0.198688 -0.062547 0.402203 0.062245 0.027083 -1.214699 -0.557548 -0.219797 -0.169376 -0.403271
大 -0.231795 0.180933 -0.317127 -0.318929 -0.078117 0.395468 0.156928 0.279292 0.116003 0.538009 -0.588113 -0.013992 -0.454471 -0.899951 0.310219 -0.296147 -0.420707 -0.732631 -0.195285 0.283498 0.238068 0.701815 -0.336544 -0.482735 -0.453404 -0.107979 0.127868 -0.079402 -0.220087 0.066797 -0.582121 -0.595755 0.078435 -0.121890 -0.128190 0.274698 -0.710809 0.755174 -0.041335 1.114722 -0.098065 -0.142284 0.427973 0.299982 0.036461 -1.061153 -0.504006 -0.142384 -0.092480 -0.329574
通讯 -0.663128 0.281975 -0.064136 -0.612952 0.014474 0.005018 -0.407922 -0.076578 0.046459 0.403377 -1.224058 -0.263925 -0.203024 -0.560736 0.181659 -0.148408 0.189605 0.010297 0.117582 0.187876 -0.075565 0.533765 -0.746631 -0.230097 -0.391559 -0.273917 -0.624144 0.100795 0.136792 0.065378 -0.359910 -0.920048 0.284132 0.192815 -0.276475 0.732617 -1.002150 0.912567 0.075161 0.576882 0.142049 0.133075 -0.076169 0.423967 -0.072107 -0.638575 -0.513816 0.540277 -0.009072 0.117255
报刊亭 -0.003651 -0.006222 0.001151 0.006885 -0.003019 0.007672 0.008103 0.000680 0.004551 -0.009860 0.002032 -0.004942 -0.008845 0.003541 0.004330 -0.003029 -0.000185 -0.001811 -0.008818 -0.004397 -0.007160 0.001027 0.007455 0.001905 -0.009186 0.001026 -0.009855 0.002706 0.008544 0.000925 -0.005626 0.001706 -0.007771 0.006919 0.004926 0.002182 -0.007224 -0.000661 -0.004571 0.008257 -0.004289 0.008705 0.009514 -0.001283 0.006713 -0.006994 -0.006916 0.001780 -0.003972 0.000156
机械 -0.178495 0.150878 -0.548015 -0.236280 -0.071715 0.520279 0.656830 0.348081 0.135193 1.017109 -0.447234 0.119898 -0.531151 -1.136806 0.352701 -0.522056 -0.542042 -1.014459 -0.184975 0.276058 0.020148 0.908927 -0.212416 -0.441595 -0.641374 0.022439 0.485117 -0.223179 -0.588325 -0.249667 -0.900379 -0.421073 0.101453 -0.235209 0.043709 0.413188 -0.478435 0.904454 0.098723 1.524439 -0.287812 -0.100664 0.533170 0.073028 0.092316 -1.437515 -0.739418 -0.266627 -0.182709 -0.556811
路 -0.463193 0.592110 -0.039931 -0.488335 -0.201547 0.269805 -0.126967 0.197733 0.105923 0.124770 -0.495900 0.407584 -0.037263 -0.741052 0.137190 -0.206092 -0.065720 -0.207409 -0.027537 0.102212 0.208973 0.554286 -0.663683 -0.209248 -0.522109 -0.395836 -0.536128 0.410222 0.066467 0.163408 -0.695627 -0.788708 0.190079 0.038021 -0.137990 0.538109 -0.800336 0.659393 -0.035414 0.908160 0.088302 0.189868 -0.065902 0.179556 -0.005103 -0.865547 -0.405309 0.488786 -0.266020 -0.109424
之 -0.517760 0.171154 -0.267695 -0.301334 0.168204 0.248304 -0.155575 0.171864 0.214505 0.414214 -0.902965 -0.136778 -0.487753 -0.864121 0.368813 -0.280509 -0.380409 -0.585789 -0.091766 0.257285 0.284916 0.537234 -0.266924 -0.626691 -0.513053 -0.165270 -0.281745 0.040605 0.134328 0.065209 -0.413887 -0.637346 0.180294 0.079380 -0.290629 0.470708 -1.017033 0.766069 -0.011791 0.854143 0.143712 -0.281732 0.339902 0.441478 -0.053705 -0.851165 -0.306210 0.046595 -0.089396 -0.176808
批发 -0.246782 0.002698 -0.521468 -0.331498 0.092135 0.249225 -0.339424 0.066595 0.361870 0.853859 -1.030788 -0.861411 -0.734222 -0.985155 0.626905 -0.285490 -0.083584 -0.565709 0.185730 0.409637 0.107650 0.638973 -0.400365 -0.233511 -0.521465 -0.155792 -0.301115 -0.043959 0.165487 -0.170614 -0.205138 -0.464799 0.216006 0.159565 -0.305301 0.783849 -1.204725 0.682921 -0.339225 0.631711 -0.104459 -0.161204 0.282767 0.171666 -0.327767 -0.791133 -0.309539 0.037607 0.126382 0.072758
昆山 -0.140962 0.257820 -0.347218 -0.299875 -0.239160 0.631404 0.525796 0.563649 0.173933 0.717845 -0.355026 0.324666 -0.525824 -1.038417 0.262688 -0.418708 -0.588983 -0.979931 -0.224066 0.234451 0.275601 0.938569 -0.399524 -0.478298 -0.633677 -0.087639 0.383235 0.008189 -0.343651 0.055650 -0.811603 -0.665358 -0.032557 -0.300470 -0.046453 0.160950 -0.638059 0.962511 0.067976 1.518944 -0.295232 -0.042495 0.585079 0.248256 0.125750 -1.404800 -0.798366 -0.235216 -0.253023 -0.543845
站 -1.161870 0.730553 0.144311 -0.576870 -0.470336 -0.000349 0.189459 0.560727 0.071376 -0.027702 -1.387151 0.545211 0.026562 -0.715278 0.559170 -0.514297 -0.217589 0.023325 0.351226 0.161710 0.589732 0.356447 -0.750915 -0.450164 -0.608793 -0.403310 -1.487906 1.099119 0.754055 0.091813 -0.454278 -1.100945 0.106347 -0.164968 -0.180833 0.999003 -1.678950 1.118516 0.394276 0.906570 0.468104 -0.379497 -0.393631 0.422182 -0.447849 -0.820709 0.212454 0.487799 -0.689427 0.370181
佳 -0.291323 0.005326 -0.569128 -0.400757 0.193688 0.286453 -0.235674 0.079745 0.255071 0.538685 -0.651319 -0.367805 -0.588967 -0.958475 0.353605 -0.314305 -0.473148 -0.700219 -0.115996 0.413964 0.158913 0.682159 -0.199902 -0.452071 -0.632009 -0.093249 -0.085158 -0.152441 -0.045638 -0.019473 -0.380633 -0.388905 0.227468 -0.095144 -0.235104 0.411237 -0.805159 0.624920 -0.004298 0.849353 -0.061209 -0.091277 0.541952 0.444920 -0.068280 -0.924852 -0.373001 -0.213209 0.058433 -0.305586
商贸 -0.544355 -0.065818 -0.339441 -0.206296 -0.069653 0.517346 0.688493 0.311204 0.248546 0.766589 -0.406711 0.335315 -0.452917 -1.032510 0.219405 -0.481657 -0.570244 -1.058764 -0.170352 0.105480 0.161549 0.627887 -0.034834 -0.561738 -0.658470 -0.199855 0.303870 0.117840 -0.445007 -0.231574 -0.874890 -0.422971 0.131175 -0.230960 -0.023950 0.219875 -0.452664 0.809981 0.126406 1.099313 0.078652 -0.172400 0.607281 0.316536 0.003918 -1.422069 -0.660220 -0.296208 -0.142298 -0.664226
药房 -1.051103 0.174495 -0.270285 -0.461657 0.357238 0.159262 -0.502829 -0.146097 0.368568 0.053472 -1.044529 0.169825 -0.194109 -1.064712 0.314415 -0.318456 -0.372918 -0.626567 -0.035659 0.349813 0.029183 0.601712 -0.596190 -0.770223 -0.653751 -0.445008 -0.880780 0.528098 0.416013 0.069846 -0.587388 -1.102231 0.412708 0.156068 -0.563605 0.602867 -1.185182 0.653559 0.060608 0.622096 0.534050 0.029414 0.111823 0.694347 -0.122068 -0.966384 -0.199264 0.338366 -0.128823 -0.224243
苏州市 -0.338641 -0.000081 -0.076424 -0.062270 0.006104 0.485012 0.954072 0.354133 0.183401 1.180736 -0.767443 -0.037401 -0.683173 -0.827530 0.464642 -0.555949 -0.290534 -0.906532 -0.076087 0.128719 0.167373 0.734215 -0.001699 -0.708663 -0.498365 0.049320 0.352899 -0.322217 -0.400740 -0.235671 -0.800647 -0.435991 -0.023090 -0.062616 -0.014572 0.573355 -0.608507 1.144123 -0.133161 1.278572 -0.191193 -0.421702 0.341816 -0.244877 -0.100947 -1.170153 -0.411069 -0.076468 -0.202841 -0.253340
广东 -0.195476 0.203835 -0.426383 -0.202326 -0.147450 0.608537 0.681412 0.472068 0.144977 0.878322 -0.485202 0.254904 -0.557875 -1.065311 0.277806 -0.474489 -0.560160 -1.109607 -0.236953 0.222852 0.183838 0.899540 -0.258268 -0.587463 -0.565507 -0.092472 0.506308 -0.170726 -0.513602 -0.042525 -0.818790 -0.588501 -0.016273 -0.253956 -0.048680 0.286172 -0.598296 0.965526 -0.003414 1.512999 -0.222525 -0.186858 0.609945 0.211086 0.089178 -1.436534 -0.839492 -0.246204 -0.183480 -0.557667
地下 -0.487282 0.996902 0.769470 -0.340978 -0.477403 0.178157 0.347563 0.785597 -0.157370 0.731736 -1.424816 0.186909 -0.201031 -0.448184 0.671227 0.067527 -0.311792 0.019863 0.206492 -0.574312 0.621896 -0.067967 -0.818290 -0.517256 0.072212 -0.615026 -0.550918 0.526420 0.407293 0.094114 -0.486808 -1.054796 0.169527 0.544468 -0.336181 0.240641 -0.893886 1.187905 -0.679547 0.590126 0.241517 -0.850450 -0.388982 0.234806 -0.202386 -0.527259 0.340257 0.704609 -0.136650 0.643787
重庆 -0.497063 0.581256 0.018815 -0.196219 0.231066 -0.087196 -0.332137 -0.084268 0.048785 0.352986 -1.061180 -0.300999 -0.033130 -0.816460 0.433170 -0.026805 0.237568 0.010249 0.161378 0.106126 -0.095448 0.541179 -0.769093 -0.207020 -0.034927 -0.269495 -0.716940 0.428942 0.231530 0.003465 -0.425463 -0.738908 0.126046 0.542823 -0.413061 0.623197 -1.162154 0.683609 0.025264 0.239243 0.337582 -0.225574 -0.272557 0.075180 -0.070813 -0.435215 -0.291889 0.473988 -0.043002 0.226140
休闲 -0.893913 0.078225 0.253629 -0.068923 0.049351 0.119051 0.144434 0.071607 0.188614 0.348537 -1.172700 -0.171495 -0.301434 -0.588811 0.404933 -0.205798 -0.210608 -0.459508 0.076401 -0.084397 0.379155 0.130835 -0.175824 -0.798665 -0.121120 -0.478668 -0.407907 0.282754 0.334826 0.125995 -0.430157 -0.672815 0.113491 0.425521 -0.479353 0.405010 -1.160345 0.722970 -0.240141 0.178601 0.549785 -0.788487 0.016748 0.578228 -0.166530 -0.580319 -0.141196 0.209493 0.039786 0.041279
健康 -1.395278 -0.462288 0.119484 -0.017936 0.525807 0.389941 0.186561 -0.206825 0.499511 -0.001661 -1.005621 0.429270 -0.377291 -0.647128 0.085279 -0.488629 -0.525510 -0.983533 -0.197084 0.087915 0.342930 0.211155 0.277402 -1.379168 -0.539677 -0.318644 -0.548427 0.215709 0.241023 0.108874 -0.721220 -0.795365 0.268344 0.095611 -0.521212 0.377228 -0.969786 0.779084 0.166733 0.355071 0.872702 -0.510832 0.465279 0.657564 -0.119958 -0.969346 0.087188 0.179817 -0.155857 -0.580298
设计 -0.426636 -0.023306 -0.632053 -0.117650 0.483495 0.450461 0.544268 0.305033 0.061852 1.015861 -0.595027 -0.120913 -0.945590 -0.916980 0.218626 -0.467676 -0.370394 -1.217944 -0.050704 0.039988 0.210466 0.343419 0.304798 -0.996242 -0.689175 0.242785 0.478861 -0.222081 -0.059703 -0.049466 -0.766274 -0.462353 0.031461 0.222328 -0.150772 0.190250 -0.737077 0.893027 -0.064565 1.231966 -0.145876 -0.436532 0.776367 0.384261 0.003696 -0.955301 -0.755490 -0.340633 0.185207 -0.606065
村民 -0.988873 -0.229128 0.473614 -0.020460 0.684907 0.164521 1.242048 -0.667596 1.170416 1.635360 -1.867918 -0.064570 -0.591213 -0.533901 1.444953 -0.757091 0.415650 -0.750482 0.849244 -0.202146 -1.010942 0.397569 0.002010 -1.567672 -0.228854 0.248146 -0.181561 0.017278 0.224671 -1.104615 -1.981229 -0.867108 0.349700 0.660614 -0.431416 1.321963 -0.413499 1.611014 0.101720 0.512984 0.282197 -0.422543 -0.701577 -1.596560 -0.858698 -0.846176 1.149612 0.855453 -0.923892 0.727945
精品 -0.509217 0.450462 -0.022805 -0.203596 -0.043512 0.058088 -0.361900 0.088410 0.256868 0.221731 -1.046460 -0.237835 -0.065533 -0.744679 0.605683 0.037443 -0.178281 -0.280161 0.098455 -0.034669 0.169089 0.334494 -0.658500 -0.345789 -0.054697 -0.336617 -0.507280 0.407159 0.423923 0.060598 -0.392397 -0.894222 0.190832 0.514092 -0.478080 0.236431 -1.167297 0.615595 -0.108700 0.244400 0.296638 -0.424454 -0.146328 0.518557 -0.046526 -0.514768 -0.086583 0.265275 0.080862 0.229695
中国工商银行 -0.609414 0.636581 -0.434000 -0.002358 -0.024860 -0.035335 0.678554 0.121727 0.021914 1.183466 -0.627415 0.765516 0.400186 -1.135932 0.170989 -0.374658 -0.140094 -0.847776 -0.115805 -0.108917 -0.572397 0.660176 -0.984454 -0.505676 -0.340376 -0.088893 -0.306058 -0.161235 -0.415038 -0.545266 -1.531086 -0.798322 0.332432 0.506692 0.031632 0.908254 -0.244770 0.532649 -0.565195 0.429950 0.297825 -0.154688 -0.643837 0.047345 0.335325 -1.088527 -0.518005 0.664494 -0.138862 0.128485
世纪 -0.643814 0.323464 -0.334435 -0.713471 -0.076731 0.063235 -0.528976 -0.269776 0.480002 -0.289700 -0.955287 0.235441 0.109205 -1.018975 0.492219 -0.053397 -0.111252 -0.722490 -0.052089 0.103502 0.083769 0.549670 -0.697958 -0.394949 -0.782235 -0.657445 -1.120692 0.611768 0.413521 -0.168674 -0.725866 -1.202908 0.437551 -0.079050 -0.517429 0.564828 -1.048067 0.338109 0.186695 0.303352 0.260573 0.353855 -0.147826 0.881445 0.028964 -1.023104 0.139621 0.418377 0.123324 -0.091453
美发 -1.323218 0.065672 0.101663 -0.207103 0.508137 0.016839 -0.273173 -0.120781 0.562322 0.149569 -1.384946 0.007052 -0.439257 -0.734575 0.359686 -0.282036 -0.183702 -0.524821 0.056699 -0.020254 0.330130 0.128439 -0.110285 -1.042446 -0.322649 -0.393103 -0.792374 0.486029 0.869378 0.068237 -0.351448 -0.762313 0.436019 0.549782 -0.592596 0.560274 -1.421236 0.631194 -0.032418 0.088331 0.797909 -0.562478 -0.126976 0.825911 -0.137465 -0.527895 0.057525 0.469091 0.105048 -0.016692
材料 0.074116 0.169026 -0.931930 -0.218982 0.417481 0.603233 0.635747 0.404177 -0.190336 1.550204 -0.561902 -0.439682 -1.251092 -1.205432 0.400648 -0.514912 -0.325898 -1.140047 -0.010250 0.226361 0.146058 0.586748 0.066512 -0.634153 -0.960675 0.385194 0.527666 -0.612615 -0.189857 -0.139975 -0.707808 -0.412732 -0.124800 0.238753 -0.036803 0.418931 -0.800466 1.034811 -0.202474 1.829626 -0.560663 -0.269395 0.905464 0.038530 -0.034228 -1.140962 -1.017453 -0.421453 0.128383 -0.507482
营业部 -0.192991 0.487940 -0.339064 -0.383345 -0.234992 0.448564 0.523116 0.361865 0.071250 1.008824 -0.674891 0.269032 -0.368989 -1.325682 0.351365 -0.363472 -0.133715 -0.777929 -0.251419 0.212873 -0.049395 1.107991 -0.704756 -0.367699 -0.468262 -0.096395 0.317528 -0.148114 -0.442900 -0.089362 -1.148706 -0.792630 0.084845 0.177051 -0.054020 0.638395 -0.624191 0.889220 -0.373993 1.438692 -0.089055 -0.029290 -0.092889 -0.065770 0.167553 -1.384577 -0.939120 0.263031 -0.280522 -0.308419
养生 -1.450071 0.085511 0.228404 -0.178523 0.704952 0.204008 -0.407176 -0.041859 0.588762 0.076835 -1.538391 0.231627 -0.608015 -0.816896 0.205817 -0.158510 -0.442381 -0.609702 -0.022651 -0.135015 0.566433 -0.006679 0.113070 -1.402873 -0.658960 -0.539190 -0.929999 0.254822 0.719861 0.192751 -0.480298 -0.926109 0.428379 0.746352 -0.597956 0.531546 -1.456192 0.772407 -0.103198 0.084057 1.083616 -0.829164 0.100561 1.200922 0.002194 -0.664682 0.032000 0.562682 0.092549 -0.445104
行 -0.288190 0.148203 -0.413611 -0.206960 0.111524 0.336832 0.146664 0.206612 0.186427 0.794175 -0.809475 -0.242890 -0.564105 -0.952903 0.348343 -0.340350 -0.202897 -0.644889 -0.048621 0.258941 0.160976 0.667839 -0.262116 -0.515104 -0.481971 -0.075825 -0.012659 -0.282928 -0.094576 -0.037392 -0.461829 -0.504425 0.116453 0.093727 -0.172206 0.638019 -0.847106 0.754342 -0.245571 0.935256 -0.051550 -0.228150 0.244453 0.161602 -0.038622 -0.909883 -0.473467 0.074869 -0.042376 -0.149339
中国建设银行 -0.617292 0.562728 -0.495051 0.040404 -0.044708 -0.019096 0.653454 0.122835 0.053117 1.152637 -0.580402 0.769125 0.385036 -1.130460 0.159915 -0.371903 -0.220184 -0.884828 -0.131867 -0.073215 -0.554239 0.667544 -0.972029 -0.489502 -0.383571 -0.079837 -0.259891 -0.146254 -0.449956 -0.565333 -1.482665 -0.761453 0.339073 0.426663 0.047071 0.825661 -0.218299 0.546705 -0.500797 0.451084 0.250000 -0.109801 -0.565989 0.104627 0.374323 -1.080055 -0.567169 0.612196 -0.174108 0.073728
眼镜 -0.650440 0.308845 -0.246946 -0.362139 0.130766 0.065901 -0.257773 0.048609 0.221012 0.165828 -0.920978 0.084467 -0.195984 -0.912000 0.376184 -0.251050 -0.289740 -0.464396 0.044374 0.215618 0.040215 0.579578 -0.555503 -0.506495 -0.444359 -0.272051 -0.593823 0.444357 0.346396 -0.028711 -0.476020 -0.843002 0.243397 0.085387 -0.445633 0.478446 -1.004140 0.602387 0.149431 0.568588 0.324209 -0.073347 0.053164 0.528740 -0.034828 -0.789733 -0.215749 0.173061 -0.118646 -0.159063
学院 -0.281081 0.417909 0.638086 0.208714 -0.517943 0.803170 1.360376 0.678623 -0.038330 1.026356 -0.804578 0.305539 -0.486187 -0.840755 0.712535 -0.234476 -0.557534 -0.955282 -0.364079 -0.181002 0.659125 0.129305 -0.559595 -0.891345 0.286587 -0.294037 0.636972 -0.077809 -0.473272 0.032373 -0.998820 -0.875235 -0.171145 0.253497 -0.109733 -0.000406 -0.768162 1.223083 -0.596057 1.412270 0.099042 -1.114229 0.744522 0.115690 0.168591 -1.258489 -0.410788 -0.067147 -0.107336 -0.312520
学校 -0.630340 0.053337 0.396147 0.009810 -0.079610 0.420690 0.988850 0.309658 0.258112 0.961372 -0.875779 0.162532 -0.451142 -0.636407 0.611311 -0.354462 -0.128147 -0.677537 -0.042827 -0.027037 0.096442 0.499486 -0.217277 -0.682108 -0.170926 -0.152991 0.099260 0.058017 -0.118292 -0.237113 -0.950479 -0.658062 0.127647 0.298943 -0.169200 0.579335 -0.605767 1.021739 -0.364293 0.911363 0.196464 -0.553292 0.010290 -0.265213 -0.048476 -0.974365 -0.204958 0.299020 -0.211394 -0.105500
盛 -0.182891 0.042895 -0.614827 -0.299632 0.103124 0.538454 0.159463 0.221124 0.165226 0.822222 -0.574145 -0.294694 -0.703771 -1.081455 0.371207 -0.400921 -0.527003 -0.981041 -0.206715 0.415231 0.235882 0.819659 -0.117048 -0.506788 -0.604941 -0.047832 0.359790 -0.355345 -0.461497 -0.065627 -0.583713 -0.375853 0.161053 -0.210536 -0.097308 0.429897 -0.748228 0.867743 -0.011196 1.385611 -0.262695 -0.150714 0.697349 0.281534 0.016700 -1.227303 -0.671349 -0.247978 -0.070105 -0.510294
居民 -1.128072 -0.238051 0.535880 -0.054778 0.667148 0.210165 1.508526 -0.539746 1.154904 1.849775 -1.915935 -0.032862 -0.675120 -0.613943 1.436788 -0.982576 0.441142 -0.828546 0.743590 -0.142175 -0.963439 0.528765 0.050930 -1.645251 -0.375730 0.272445 -0.268585 -0.056004 0.147174 -1.064575 -2.159539 -0.920715 0.359784 0.588715 -0.396892 1.493799 -0.544177 1.724996 0.042233 0.741276 0.377403 -0.521677 -0.826454 -1.648786 -0.888418 -1.122275 1.158126 0.888274 -0.953010 0.699427
记 -0.436750 0.348819 -0.075229 -0.208535 0.074237 0.096486 -0.131441 0.083991 0.153507 0.538443 -1.035020 -0.324954 -0.273637 -0.784587 0.511854 -0.105258 0.048965 -0.141590 0.139476 0.190936 0.074542 0.588494 -0.578106 -0.280225 -0.197930 -0.223981 -0.455173 0.182482 0.179230 0.005625 -0.349500 -0.673191 0.146024 0.383246 -0.318947 0.660675 -1.037959 0.730762 -0.151462 0.480885 0.246431 -0.320757 -0.123392 0.064619 -0.124305 -0.565908 -0.307528 0.339608 -0.093692 0.192561
工作室 -0.888204 0.157621 0.067880 -0.109492 0.383735 0.087536 0.016819 0.059857 0.370925 0.417643 -1.237076 0.025943 -0.402217 -0.731390 0.368201 -0.235599 -0.134924 -0.467232 0.057447 0.041021 0.217708 0.375042 -0.207015 -0.897325 -0.281054 -0.263125 -0.505767 0.209141 0.483218 0.025073 -0.467872 -0.746561 0.197184 0.516099 -0.485263 0.575048 -1.150710 0.746622 -0.141888 0.323016 0.513452 -0.576157 -0.017898 0.447054 -0.030027 -0.575192 -0.136554 0.368235 0.057427 -0.017101
好 -0.650156 0.269730 -0.277965 -0.372590 0.166390 0.080035 -0.399577 0.014739 0.263153 0.106349 -0.952350 -0.053651 -0.197568 -0.859298 0.441978 -0.189666 -0.249247 -0.427468 0.040309 0.255092 0.056688 0.475444 -0.521775 -0.453323 -0.475476 -0.306947 -0.679469 0.421322 0.347752 -0.039537 -0.388683 -0.846399 0.294360 0.094844 -0.459131 0.517686 -1.052327 0.583548 0.116147 0.476472 0.326900 -0.083085 0.020810 0.515421 -0.069074 -0.724986 -0.119242 0.202717 -0.077907 -0.090641
家 -0.525220 0.217102 -0.226760 -0.352102 0.101369 0.123346 -0.248601 0.088826 0.276519 0.244816 -0.891429 -0.115159 -0.268354 -0.834776 0.466273 -0.237488 -0.320016 -0.460349 0.050523 0.241375 0.081669 0.569729 -0.466715 -0.461354 -0.444536 -0.255984 -0.486723 0.306206 0.310605 -0.035578 -0.367261 -0.758796 0.265016 0.054911 -0.404097 0.400317 -0.913112 0.588449 0.064206 0.553706 0.199822 -0.088586 0.135603 0.481991 -0.084812 -0.743083 -0.148217 0.105176 -0.064039 -0.090514
销售 -0.899115 -0.388881 -0.363736 0.068822 0.656761 0.605626 0.807577 0.016312 0.483018 0.360427 -0.561840 0.830455 -0.711430 -1.192833 -0.577713 -0.818538 -0.898921 -1.671059 -0.512980 0.140868 0.653117 0.836810 0.602034 -1.596678 -0.893444 -0.376590 0.166401 -0.779107 -0.357388 0.180422 -1.045132 -0.350508 -0.178286 -0.133273 -0.209903 0.397170 -0.932525 0.817765 0.257610 0.985471 0.481190 -0.628051 0.892672 0.861668 0.263892 -1.665125 -0.585185 -0.329838 -0.136728 -1.182858
机电 0.008414 0.064042 -0.671810 -0.252101 -0.064306 0.594095 0.479473 0.408654 0.179864 1.256477 -0.630961 -0.381548 -0.831248 -1.226716 0.458121 -0.498665 -0.558482 -0.923811 -0.118135 0.352025 0.079925 0.907676 -0.190269 -0.359470 -0.557616 -0.000297 0.467052 -0.420367 -0.547155 -0.282728 -0.681158 -0.249361 0.100297 -0.138977 0.028250 0.461186 -0.669062 0.913594 -0.104734 1.476841 -0.424053 -0.176626 0.670311 0.092107 0.003265 -1.369680 -0.666257 -0.303754 -0.051706 -0.402151
面馆 -0.464955 0.341881 -0.056090 -0.228749 0.095744 0.059134 -0.068105 0.097441 0.120747 0.404861 -0.870207 -0.066163 -0.223140 -0.761232 0.394486 -0.149949 -0.011745 -0.242606 0.047884 0.129851 0.025649 0.544832 -0.507221 -0.376756 -0.275476 -0.204364 -0.421903 0.219482 0.180871 -0.020503 -0.457936 -0.690419 0.157878 0.266404 -0.322185 0.565621 -0.857119 0.654057 -0.075883 0.500831 0.235023 -0.190499 -0.126108 0.153969 -0.043435 -0.602322 -0.229636 0.292285 -0.092695 0.041940
大酒店 -0.395365 0.701767 0.419418 0.044839 -0.280213 0.355961 0.448097 0.390751 0.084428 0.601570 -1.138621 0.066362 -0.244134 -0.790808 0.687766 -0.099910 -0.364324 -0.516240 -0.059225 -0.278248 0.431152 0.008629 -0.760996 -0.679643 0.214897 -0.488325 -0.106943 0.117640 0.147992 0.004307 -0.656285 -0.923998 0.049263 0.548941 -0.333913 0.123631 -0.880735 0.837465 -0.421589 0.628187 0.291286 -0.848395 0.324048 0.505573 0.133378 -0.790189 -0.058789 0.230332 0.076320 0.136106
华联 -0.626734 0.486272 -0.324612 -0.703939 -0.098939 0.049189 -0.961879 -0.441864 0.349768 -0.223174 -1.151157 -0.081985 -0.139443 -1.089798 0.457790 0.093541 -0.046732 -0.570004 0.134291 0.027852 0.115738 0.713968 -0.927352 -0.560971 -0.894420 -0.567683 -1.199329 0.716874 0.602851 -0.100063 -0.740956 -1.299489 0.699278 -0.095852 -0.787206 0.731518 -1.211315 0.383244 0.015360 0.252633 0.354790 0.407002 -0.106121 0.623887 -0.171251 -1.093570 0.331051 0.503757 0.205063 -0.166850
医院 -0.438079 0.524635 0.621692 0.144529 -0.326273 0.508336 0.912337 0.409667 0.116745 0.744963 -1.034743 0.203693 -0.291706 -0.730888 0.758074 -0.261623 -0.309217 -0.628891 -0.078446 -0.307110 0.367715 -0.006258 -0.566979 -0.770294 0.212542 -0.370399 0.121007 0.059584 -0.002113 -0.113466 -0.866159 -0.819365 0.022750 0.555703 -0.196112 0.213196 -0.721441 0.931804 -0.440063 0.783177 0.295732 -0.943495 0.308602 0.253743 0.109607 -0.888952 -0.023424 0.238975 -0.060157 0.037859
养生馆 -1.062548 0.098963 0.171045 -0.150839 0.551223 0.212702 -0.218249 0.068564 0.438104 0.232783 -1.251298 0.197784 -0.560383 -0.742988 0.207828 -0.132098 -0.363072 -0.502634 -0.075769 -0.086190 0.460349 0.110217 0.031489 -1.149851 -0.570619 -0.391637 -0.638074 0.109698 0.436784 0.125390 -0.451920 -0.769530 0.305707 0.585219 -0.425775 0.518102 -1.101858 0.734153 -0.148687 0.227655 0.818526 -0.664380 0.081233 0.844576 0.014115 -0.625000 -0.053938 0.495125 0.036927 -0.359830
摄影 -0.928061 0.146924 0.110082 -0.237558 0.218428 0.080978 -0.065343 -0.048742 0.235038 0.482793 -1.281914 -0.020366 -0.294618 -0.781708 0.401200 -0.149238 0.039553 -0.299529 0.056028 0.088620 0.217951 0.313669 -0.281165 -0.728179 -0.192904 -0.448389 -0.564909 0.295670 0.460706 0.001280 -0.487593 -0.721119 0.251587 0.574824 -0.533411 0.693242 -1.224109 0.842789 -0.158743 0.268730 0.547853 -0.446370 -0.201399 0.446266 -0.128268 -0.481203 -0.146352 0.435930 0.081902 -0.003867
网吧 -0.471801 0.237477 -0.069277 -0.200542 0.094208 0.142058 0.042272 0.093332 0.191582 0.424014 -0.851980 -0.025407 -0.270593 -0.718627 0.347887 -0.184956 -0.096770 -0.356763 0.025446 0.110575 0.103411 0.480429 -0.382749 -0.421033 -0.302548 -0.236251 -0.348582 0.136328 0.141173 -0.025434 -0.430265 -0.619835 0.173834 0.207442 -0.293843 0.516908 -0.814635 0.625587 -0.096131 0.520796 0.204247 -0.220994 -0.039704 0.186845 -0.063113 -0.658313 -0.209275 0.261613 -0.078176 0.006196
电脑 -0.542737 0.056211 -0.137509 -0.218456 0.174517 0.293954 0.182912 0.103777 0.179873 0.534059 -0.823506 0.008218 -0.449019 -0.791762 0.266918 -0.286182 -0.250942 -0.575086 -0.017573 0.126335 0.239724 0.486172 -0.196175 -0.608427 -0.433479 -0.205454 -0.209047 -0.015810 -0.041397 -0.028775 -0.496965 -0.535593 0.145513 0.083769 -0.238789 0.556830 -0.843464 0.766407 -0.032111 0.687998 0.247922 -0.284962 0.211572 0.266764 -0.064852 -0.868196 -0.299883 0.141039 -0.054425 -0.238645
中国邮政储蓄银行 -0.649321 0.464707 -0.374155 0.111710 0.045116 -0.110155 0.674042 0.085355 0.106554 1.251133 -0.700233 0.597567 0.315249 -0.985880 0.251794 -0.382104 -0.146044 -0.780278 -0.073795 -0.075593 -0.573848 0.647779 -0.856091 -0.512482 -0.369182 -0.040984 -0.345561 -0.237222 -0.351788 -0.638145 -1.361543 -0.682265 0.349555 0.466269 0.033632 0.920800 -0.234451 0.571989 -0.512862 0.312246 0.248107 -0.194421 -0.628635 -0.032947 0.282165 -0.920480 -0.380796 0.610912 -0.159781 0.219495
手机 -1.215171 0.461446 0.049474 -0.850597 0.193528 -0.254630 -0.951647 -0.212408 0.208043 0.018911 -1.787794 -0.166983 -0.075250 -0.781244 0.361208 -0.091019 0.159606 0.200911 0.307687 0.204717 -0.075458 0.546970 -1.162455 -0.355929 -0.498854 -0.489881 -1.424317 0.699773 0.768042 0.153191 -0.293332 -1.413373 0.474801 0.357223 -0.652445 0.880790 -1.557988 1.000475 0.265084 0.249813 0.533338 0.153673 -0.327605 0.871558 -0.203973 -0.553156 -0.219195 0.867736 -0.056192 0.304427
阳光 -0.583349 0.200116 0.074064 -0.212210 0.071289 0.142501 0.015876 0.112922 0.210716 0.260556 -0.858548 0.089470 -0.226479 -0.608436 0.346616 -0.134719 -0.211420 -0.400818 -0.006006 0.025427 0.227032 0.313163 -0.367436 -0.561376 -0.258546 -0.328983 -0.443191 0.234625 0.256541 0.005082 -0.439844 -0.721906 0.164823 0.190433 -0.369005 0.383960 -0.802445 0.609465 -0.100352 0.344461 0.328709 -0.317484 0.037949 0.390296 -0.046808 -0.639350 -0.051058 0.215866 -0.010974 -0.036897
号 -1.247365 0.920921 0.263038 -0.687375 -0.415166 -0.148525 -0.213903 0.582112 -0.006837 -0.207153 -1.587906 0.513167 0.070575 -0.798707 0.756847 -0.292002 -0.453732 -0.006351 0.417168 0.094366 0.482660 0.240270 -1.185666 -0.533123 -0.405807 -0.492877 -1.649598 1.528069 1.041080 0.067383 -0.451006 -1.584447 0.140975 -0.005883 -0.574053 0.757985 -1.814781 1.075996 0.496700 0.569879 0.594961 -0.289364 -0.440066 0.823681 -0.351477 -0.725722 0.313283 0.495882 -0.531699 0.388942
中国农业银行 -0.575564 0.591237 -0.486719 0.057438 -0.059890 -0.021202 0.669575 0.137191 0.043778 1.118832 -0.504204 0.821531 0.435953 -1.111817 0.136754 -0.352385 -0.198366 -0.877451 -0.164884 -0.091161 -0.575369 0.648739 -0.989686 -0.456580 -0.352057 -0.094966 -0.225736 -0.168927 -0.452405 -0.551571 -1.485768 -0.761405 0.325527 0.428866 0.061358 0.802640 -0.157972 0.478296 -0.541365 0.428165 0.247919 -0.097857 -0.580191 0.100235 0.413670 -1.063890 -0.582983 0.615209 -0.165172 0.086379
火锅 -0.631157 0.472225 -0.025077 -0.254616 0.075868 0.011771 -0.303592 0.036094 0.162591 0.321005 -1.145998 -0.118395 -0.168921 -0.876460 0.495615 -0.084134 0.053869 -0.121928 0.168113 0.153411 -0.028147 0.696618 -0.789366 -0.337825 -0.267974 -0.293079 -0.665966 0.470715 0.360890 0.050022 -0.474146 -0.969316 0.194719 0.444288 -0.503838 0.685247 -1.166423 0.739968 -0.065349 0.421021 0.355962 -0.193679 -0.298878 0.251948 -0.071186 -0.599679 -0.269374 0.482720 -0.092017 0.162784
恒 -0.215015 0.033037 -0.491251 -0.263734 0.048506 0.455662 0.289734 0.232136 0.094916 0.737340 -0.550532 -0.176791 -0.626763 -0.934232 0.301609 -0.419832 -0.469909 -0.905291 -0.240125 0.373807 0.218087 0.742872 -0.136317 -0.573695 -0.520882 0.031087 0.366864 -0.363216 -0.437366 -0.026212 -0.617269 -0.424610 0.080138 -0.192557 -0.039542 0.423373 -0.641601 0.815075 -0.077066 1.297677 -0.190723 -0.170350 0.590636 0.197479 0.025190 -1.134406 -0.568430 -0.237923 -0.083524 -0.425297
成 -0.174946 0.074378 -0.460221 -0.235965 0.024698 0.466648 0.259015 0.216477 0.128896 0.804587 -0.512990 -0.189970 -0.608921 -0.974091 0.276928 -0.384707 -0.374600 -0.857426 -0.182208 0.305024 0.177807 0.732955 -0.170639 -0.423991 -0.523137 -0.056758 0.312082 -0.208365 -0.374281 -0.064558 -0.612500 -0.373194 0.088568 -0.111675 -0.059150 0.450516 -0.672709 0.795763 -0.101332 1.205778 -0.165913 -0.145419 0.528411 0.134225 0.019936 -1.125057 -0.633296 -0.167940 -0.087390 -0.413055
诊所 -0.527686 0.239638 -0.022802 -0.192380 0.154090 0.145553 0.166160 0.141847 0.210506 0.654503 -0.968938 -0.046657 -0.376873 -0.828040 0.338518 -0.246993 -0.098126 -0.419644 -0.054489 0.076823 0.091099 0.534059 -0.299985 -0.633090 -0.394030 -0.224031 -0.260977 -0.030870 0.038406 -0.060925 -0.564062 -0.653332 0.152284 0.317996 -0.293354 0.648709 -0.848731 0.743641 -0.182301 0.580138 0.312663 -0.399354 -0.043396 0.157013 -0.061419 -0.767521 -0.233689 0.308721 -0.051601 -0.043710
中国电信 -0.564769 0.309008 0.323010 -0.361093 -0.252729 0.204946 0.093932 0.074504 0.261219 0.758070 -1.313878 0.054353 -0.273378 -0.441214 0.385615 -0.121507 0.395905 0.065391 0.126139 0.009187 0.094221 0.484813 -0.649628 -0.226443 -0.297415 -0.432413 -0.323960 0.238540 0.009374 -0.062744 -0.718230 -1.118399 0.157066 0.225141 -0.272352 0.965513 -0.842189 0.938148 -0.164514 0.661882 0.282142 0.010495 -0.383886 -0.257636 -0.039758 -0.745988 -0.727996 0.843030 -0.164036 0.205685
专营店 -0.780225 0.418384 0.062031 -0.551205 -0.072414 -0.124111 -0.340515 -0.034731 0.174107 0.524892 -1.581964 -0.253452 -0.199613 -0.743368 0.348136 -0.238788 0.332452 0.027330 0.139935 0.195724 -0.190282 0.670471 -0.968604 -0.368776 -0.389915 -0.345773 -0.760540 0.140821 0.345764 -0.024245 -0.533948 -1.164667 0.291155 0.406103 -0.324212 0.981703 -1.202653 1.009669 -0.105462 0.561872 0.326130 -0.036073 -0.364061 0.400885 -0.063817 -0.673459 -0.447600 0.653298 -0.098953 0.252505
家具 -0.345222 0.202219 -0.290889 -0.273412 -0.014420 0.243996 0.289138 0.300615 0.177604 0.670145 -0.652021 0.054720 -0.361836 -0.859567 0.360883 -0.337680 -0.410229 -0.600911 -0.060956 0.142301 0.083812 0.537975 -0.259264 -0.456239 -0.492599 -0.162407 -0.058296 0.053765 -0.132744 -0.160133 -0.612941 -0.471769 0.158275 -0.043342 -0.135879 0.341829 -0.596280 0.722712 0.079059 0.838446 0.002419 -0.223290 0.273539 0.284098 0.001715 -0.984003 -0.301707 -0.110058 -0.068747 -0.214756
维修 -0.941642 -0.321183 -0.093458 0.119707 0.528581 0.212125 0.375955 -0.038872 0.505793 0.125987 -0.519501 0.489625 -0.608153 -0.718111 -0.438934 -0.681609 -0.597390 -1.274980 -0.271958 0.146318 0.528221 0.558385 0.485916 -1.352474 -0.780491 -0.351189 -0.147982 -0.384377 0.066418 0.194014 -0.649909 -0.374136 -0.220300 0.136993 -0.218817 0.422028 -1.041297 0.608019 0.160915 0.435624 0.474904 -0.604694 0.546101 0.879483 -0.004004 -1.032285 -0.449066 -0.232272 -0.052268 -0.756349
3 -1.140419 0.687532 0.058380 -0.593411 -0.107007 -0.224594 -0.474834 0.399191 0.027597 -0.435885 -1.377288 0.393823 0.106410 -0.844374 0.581528 -0.215385 -0.479207 -0.163081 0.325987 0.144515 0.212652 0.296339 -1.052840 -0.554618 -0.322879 -0.412277 -1.389861 1.397256 0.988322 0.095741 -0.346420 -1.444510 0.155909 0.060594 -0.705724 0.441317 -1.516443 0.779298 0.575739 0.298714 0.681854 -0.228952 -0.160527 1.116696 -0.161898 -0.620588 0.139940 0.250279 -0.331924 0.103565
兴 -0.157715 -0.011713 -0.415625 -0.297480 0.029184 0.415621 0.236201 0.182247 0.123170 0.918304 -0.588046 -0.386272 -0.675082 -0.874936 0.405046 -0.383734 -0.364553 -0.702530 -0.157227 0.365243 0.199733 0.708775 -0.118179 -0.436861 -0.530190 0.001800 0.295650 -0.348328 -0.390837 -0.096813 -0.515464 -0.265765 0.133061 -0.134506 -0.044687 0.555285 -0.646743 0.809029 -0.137849 1.170080 -0.250944 -0.133476 0.426177 0.015476 -0.107806 -1.054362 -0.431212 -0.148014 -0.092707 -0.250154
美食 -0.502096 0.477083 0.006185 -0.217121 0.109701 0.021288 -0.160127 0.096147 0.073285 0.380201 -0.834409 -0.081962 -0.104260 -0.693436 0.345417 -0.052592 0.021853 -0.166707 0.031686 0.040526 0.037574 0.451826 -0.523008 -0.313616 -0.142741 -0.230417 -0.395193 0.343068 0.148523 0.031214 -0.527763 -0.698791 0.187055 0.336475 -0.292788 0.572818 -0.941488 0.709662 -0.009363 0.479318 0.270185 -0.336358 -0.077054 0.161786 0.015109 -0.574099 -0.222251 0.321144 -0.036962 0.097252
浙江 -0.205232 0.190708 -0.275239 -0.162635 -0.082286 0.441560 0.567676 0.418048 0.114533 0.785307 -0.524361 0.138097 -0.480932 -0.898930 0.315502 -0.367454 -0.451930 -0.877845 -0.187480 0.176085 0.193972 0.706708 -0.237882 -0.552420 -0.443109 -0.043123 0.348948 -0.139141 -0.330923 -0.054798 -0.711669 -0.562256 -0.009091 -0.118324 -0.068145 0.249236 -0.604733 0.882394 -0.031878 1.230069 -0.159315 -0.281280 0.463285 0.174779 0.058071 -1.144769 -0.595246 -0.209660 -0.143903 -0.381557
小 -0.398212 0.308367 -0.095213 -0.210355 0.112180 0.084118 0.094583 0.092694 0.129405 0.621938 -0.899321 -0.089962 -0.267645 -0.775928 0.366027 -0.223693 -0.023827 -0.331946 0.020004 0.126351 0.010939 0.525376 -0.418429 -0.433139 -0.272769 -0.179670 -0.311251 0.001563 0.055534 -0.082566 -0.512071 -0.589251 0.146988 0.260636 -0.263602 0.610236 -0.796858 0.644874 -0.192858 0.510867 0.191154 -0.273902 -0.115475 0.065008 -0.082684 -0.662132 -0.226271 0.294750 -0.050304 0.071431
诚 -0.199050 0.010649 -0.561669 -0.302362 0.131961 0.455621 0.184086 0.206348 0.145254 0.724117 -0.529734 -0.164911 -0.652279 -0.975431 0.213167 -0.415341 -0.464109 -0.922902 -0.225312 0.369758 0.195616 0.757607 -0.110601 -0.559328 -0.648176 0.000154 0.296868 -0.339860 -0.336743 -0.015883 -0.546734 -0.401268 0.085060 -0.194640 -0.097285 0.414353 -0.699719 0.774874 -0.002457 1.245671 -0.175658 -0.126106 0.612553 0.278019 0.008290 -1.146670 -0.640152 -0.255283 -0.057638 -0.476740
成都市 -0.461449 0.052221 -0.048228 -0.092651 0.108657 0.318670 0.748974 0.246766 0.247323 1.039487 -0.851628 0.023863 -0.566301 -0.835601 0.408330 -0.482211 -0.194862 -0.760369 -0.062581 0.106798 0.076024 0.729123 -0.107338 -0.698512 -0.501314 -0.076698 0.031200 -0.184471 -0.215175 -0.210722 -0.780787 -0.522535 0.053832 0.060174 -0.143395 0.666508 -0.707101 0.997878 -0.146839 0.956892 0.018768 -0.360613 0.104834 -0.161536 -0.142015 -1.075202 -0.321561 0.076829 -0.171545 -0.158003
电动车 -0.570300 0.349706 -0.141781 -0.376811 0.022684 0.118731 -0.033237 0.177612 0.071788 0.311474 -0.852289 0.008450 -0.235876 -0.722029 0.306649 -0.233270 -0.138369 -0.189712 0.092268 0.190099 0.172608 0.455325 -0.436321 -0.335992 -0.400799 -0.172466 -0.509842 0.230351 0.141938 0.040805 -0.364124 -0.595131 0.159815 0.051195 -0.169141 0.667350 -0.956765 0.708994 0.053844 0.664413 0.176645 -0.180609 -0.018443 0.235314 -0.138769 -0.668829 -0.222883 0.285697 -0.168049 0.016219
正宗 -0.629845 0.665048 -0.072881 0.158291 0.231811 -0.055268 -0.544588 -0.338058 0.008811 0.645776 -1.335284 -0.549296 0.034053 -1.084072 0.496987 0.078154 0.409590 0.205322 0.376902 0.053999 -0.050413 0.849202 -1.053518 0.004718 0.102367 -0.198649 -0.617967 0.582069 -0.036972 0.093440 -0.726029 -0.990623 -0.025251 1.163796 -0.448464 0.968397 -1.750776 1.017581 -0.036898 0.224315 0.555381 -0.475461 -0.714310 -0.272778 -0.111307 -0.511731 -0.558707 0.841672 -0.103569 0.355561
俱乐部 -0.710249 0.119965 0.183771 -0.051916 0.085578 0.255466 0.291171 0.174551 0.285841 0.457752 -1.007040 0.178003 -0.355841 -0.741698 0.343650 -0.238258 -0.224898 -0.560069 -0.051378 0.003536 0.282007 0.443220 -0.312359 -0.732300 -0.278101 -0.364869 -0.332219 0.192711 0.230433 -0.010227 -0.586870 -0.788128 0.076276 0.309619 -0.384531 0.449955 -0.959182 0.803906 -0.187048 0.526561 0.371674 -0.499203 0.055203 0.316552 -0.037516 -0.783238 -0.228964 0.246359 -0.093496 -0.116294
办事处 -0.329630 0.108018 -0.197951 -0.212637 -0.208967 0.563712 0.829439 0.262352 0.118284 0.798838 -0.309810 0.435939 -0.392981 -1.098928 0.353238 -0.513765 -0.349157 -1.087988 -0.343617 0.290192 -0.031486 0.846859 -0.331325 -0.591424 -0.479438 0.073517 0.583054 0.048439 -0.518799 -0.141393 -1.308496 -0.650412 0.033453 -0.134416 0.049015 0.432808 -0.347288 0.845936 -0.155543 1.521335 -0.024475 -0.082590 0.250592 -0.143606 0.134916 -1.437389 -0.680074 -0.036614 -0.395063 -0.640528
服务站 -0.925050 -0.286700 0.283192 0.104547 0.379508 0.152150 1.016764 -0.022175 0.465228 0.969145 -1.090836 0.180258 -0.522797 -0.582133 0.350198 -0.665403 -0.027427 -0.851608 -0.026779 0.028860 -0.001678 0.591083 0.181101 -1.138807 -0.476966 -0.199096 -0.285100 -0.129906 -0.048494 -0.338836 -1.052541 -0.527788 0.015208 0.218496 -0.285232 0.951245 -0.743625 1.011183 -0.101954 0.482744 0.508772 -0.581238 -0.132735 -0.279101 -0.324294 -1.036976 0.169222 0.291701 -0.246620 -0.099696
拉面 -0.605240 0.372340 -0.112963 0.290498 0.036398 0.287693 -0.630916 -0.420739 0.000070 0.684606 -1.398893 -0.485746 0.033268 -1.118649 0.600345 0.163921 0.237427 0.147338 0.601616 -0.058996 0.253066 0.845898 -1.170585 0.162590 0.007761 -0.274894 -0.366204 0.819267 -0.123636 0.285753 -0.714960 -1.184058 -0.123889 1.430896 -0.559415 0.753406 -1.881061 1.015946 -0.125149 0.202181 0.532835 -0.298381 -0.725164 -0.198929 -0.173334 -0.637370 -0.711936 0.969545 -0.224930 0.247858
江苏 -0.252979 0.162620 -0.295613 -0.168334 -0.095741 0.577578 0.651969 0.433192 0.121919 0.802762 -0.508845 0.200678 -0.546662 -0.972288 0.278074 -0.442419 -0.470244 -0.994912 -0.216246 0.222323 0.232522 0.839363 -0.239242 -0.621836 -0.492262 -0.058876 0.441449 -0.199526 -0.473212 -0.001632 -0.821233 -0.596258 -0.045525 -0.166504 -0.050950 0.343186 -0.663726 1.021168 -0.089231 1.448688 -0.190440 -0.234748 0.554251 0.135688 0.064264 -1.311993 -0.714870 -0.162469 -0.215052 -0.474020
协会 -0.679976 -0.119883 0.235682 0.004061 0.056720 0.388581 1.050716 0.073095 0.309534 1.092406 -0.985693 0.026298 -0.473045 -0.635501 0.654609 -0.608199 0.024080 -0.736818 0.030436 0.100902 -0.032199 0.574463 -0.011618 -0.804843 -0.288616 0.059245 0.056810 -0.114413 -0.208346 -0.323216 -1.072458 -0.551624 0.111756 0.171541 -0.038514 0.828297 -0.595345 1.173830 -0.235788 0.970084 0.113920 -0.525467 -0.054744 -0.574184 -0.247991 -0.999229 -0.004082 0.296414 -0.386965 -0.031709
市场 -0.392215 0.224793 0.212420 -0.167634 -0.066267 0.149741 0.545900 0.254085 0.103080 1.036584 -1.033362 -0.199697 -0.521402 -0.602935 0.539104 -0.303764 0.023424 -0.316561 0.009875 0.071476 0.132881 0.517444 -0.257244 -0.491697 -0.285021 -0.082597 -0.178816 -0.057959 -0.036983 -0.177785 -0.584292 -0.516268 0.143803 0.262118 -0.099014 0.838043 -0.718253 0.960161 -0.399642 0.804524 0.002723 -0.375623 -0.175283 -0.378415 -0.202478 -0.720476 -0.063268 0.375471 -0.126780 0.226542
旅馆 -0.405125 0.283072 0.001614 -0.197328 0.026674 0.137383 0.087214 0.131505 0.150388 0.407352 -0.784187 -0.001486 -0.244890 -0.669123 0.349834 -0.184893 -0.121974 -0.312230 -0.014607 0.056920 0.120309 0.371039 -0.389414 -0.424953 -0.228942 -0.229371 -0.281545 0.092371 0.128719 -0.001981 -0.439243 -0.604753 0.123575 0.212356 -0.247207 0.425327 -0.726954 0.580601 -0.130377 0.528006 0.203383 -0.256818 -0.011669 0.196210 -0.042832 -0.637477 -0.156900 0.233923 -0.048456 0.021608
驾校 -0.442734 0.032649 0.179889 -0.136547 -0.644298 0.972771 0.177083 0.538280 0.199738 0.027139 -0.472893 0.510198 -0.569369 -1.063759 0.589138 0.008886 -0.457659 -0.988385 -0.271264 0.430228 0.432264 1.048444 -0.929340 -0.286572 -0.533919 -0.225097 0.298220 0.895124 0.062619 0.329897 -0.985753 -1.342130 0.055937 -0.014558 -0.260934 0.198638 -0.934211 1.128227 -0.132590 1.762737 -0.067305 -0.026541 0.571516 0.289227 0.285718 -1.401881 -1.138991 0.115298 -0.627099 -0.691230
东方 -0.382054 0.208263 -0.035528 -0.188811 -0.023323 0.247898 0.236597 0.197903 0.149267 0.519122 -0.727345 0.010934 -0.337795 -0.692778 0.358976 -0.238480 -0.184212 -0.509548 -0.056097 0.104332 0.166266 0.459002 -0.330927 -0.470450 -0.260693 -0.153618 -0.037363 0.121990 -0.006034 -0.019546 -0.570926 -0.609515 0.055899 0.153123 -0.187654 0.400918 -0.722354 0.726118 -0.116294 0.746623 0.077918 -0.281110 0.149654 0.170526 -0.036814 -0.765951 -0.320514 0.115685 -0.083633 -0.136398
桥 -0.319838 0.214678 -0.097731 -0.243865 -0.109836 0.237199 0.171993 0.208583 0.129008 0.430607 -0.563436 0.095225 -0.257315 -0.650642 0.337977 -0.249312 -0.150030 -0.383484 -0.015286 0.147261 0.079087 0.509194 -0.376207 -0.302948 -0.365329 -0.130620 -0.141436 0.205865 0.028365 -0.041656 -0.513451 -0.585196 0.112543 0.003691 -0.160354 0.416115 -0.617211 0.630825 -0.041853 0.767771 0.022261 -0.054624 0.020972 0.033681 -0.033114 -0.757828 -0.277177 0.178057 -0.217410 -0.092408
泰 -0.225808 0.091591 -0.449091 -0.259162 -0.031936 0.467299 0.227478 0.277395 0.134781 0.647449 -0.531929 -0.105911 -0.536384 -0.887452 0.286476 -0.335997 -0.442220 -0.819109 -0.171021 0.302714 0.245884 0.637206 -0.189260 -0.469141 -0.509573 -0.053413 0.242549 -0.187985 -0.274644 -0.015564 -0.521379 -0.474723 0.095345 -0.181449 -0.063331 0.356067 -0.657712 0.742816 -0.047456 1.195221 -0.164136 -0.155354 0.526752 0.258714 0.010884 -1.069925 -0.541262 -0.196930 -0.102864 -0.371239
厂 -0.377257 0.155308 -0.305118 -0.196256 0.055550 0.366115 0.399523 0.218735 0.163214 0.751160 -0.686646 0.049957 -0.529158 -1.013862 0.302820 -0.417822 -0.288530 -0.819977 -0.151574 0.258779 0.123394 0.799444 -0.262322 -0.640261 -0.494617 -0.079038 0.181214 -0.190030 -0.256212 -0.064157 -0.792341 -0.600257 0.066790 0.096253 -0.156040 0.597760 -0.769657 0.825218 -0.142554 1.126129 0.027141 -0.246132 0.207782 0.137900 0.050413 -1.113342 -0.573246 0.086117 -0.159906 -0.353004
车行 -0.407610 0.250088 -0.153236 -0.226116 0.055610 0.094957 0.045883 0.128818 0.157424 0.448991 -0.814304 -0.041504 -0.267481 -0.729384 0.347665 -0.235115 -0.131964 -0.327914 0.032112 0.136245 0.055602 0.484428 -0.388403 -0.386282 -0.329635 -0.191802 -0.338241 0.091314 0.104701 -0.083850 -0.405660 -0.563704 0.154726 0.132055 -0.236963 0.522117 -0.746875 0.576602 -0.039719 0.536595 0.159796 -0.194021 -0.027524 0.196276 -0.063951 -0.648703 -0.197557 0.191122 -0.083253 0.012034
常熟市 -0.402503 0.088865 -0.107057 -0.118978 0.078247 0.335474 0.618766 0.220001 0.215346 0.864116 -0.747378 0.057300 -0.504212 -0.793889 0.301737 -0.425912 -0.216923 -0.724530 -0.067155 0.068597 0.100745 0.615696 -0.128708 -0.676132 -0.409768 -0.076007 0.104444 -0.205260 -0.240503 -0.145133 -0.713961 -0.484291 0.034313 0.061917 -0.115423 0.506920 -0.637108 0.876647 -0.105036 0.879254 0.035701 -0.320612 0.210908 -0.031537 -0.076628 -0.996374 -0.336046 0.031559 -0.136669 -0.223025
一 -0.263714 0.225119 -0.163519 -0.259648 -0.096794 0.316899 0.267984 0.309674 0.071792 0.653381 -0.640722 -0.056960 -0.428893 -0.770548 0.391788 -0.296242 -0.245977 -0.488997 -0.076451 0.193824 0.233104 0.582388 -0.314588 -0.382805 -0.380739 -0.089186 0.029624 0.010172 -0.131548 -0.017102 -0.572714 -0.528409 0.050620 0.028785 -0.104444 0.463781 -0.729121 0.784818 -0.101425 0.985208 -0.080450 -0.197667 0.162652 0.044741 -0.075053 -0.873326 -0.348058 0.043317 -0.161097 -0.122524
天 -0.319279 0.200435 -0.330542 -0.275186 -0.067959 0.380731 0.297542 0.286616 0.093549 0.610040 -0.630614 -0.010069 -0.411128 -0.858317 0.355600 -0.344892 -0.395697 -0.673385 -0.120389 0.226329 0.222079 0.546772 -0.251749 -0.462944 -0.396145 -0.099522 0.126468 -0.087691 -0.263126 -0.031247 -0.584618 -0.492399 0.123575 -0.087989 -0.068683 0.390486 -0.663691 0.788950 -0.046021 1.110195 -0.034344 -0.254755 0.395230 0.230844 0.008232 -1.002079 -0.427453 -0.061745 -0.102926 -0.268575
批发部 -0.196914 0.185423 -0.306500 -0.226994 0.053537 0.250202 0.069728 0.181556 0.174759 0.862058 -0.881075 -0.434150 -0.574376 -0.951421 0.485779 -0.272002 -0.101569 -0.484911 -0.001156 0.268037 0.064251 0.687034 -0.368650 -0.347904 -0.352594 -0.119198 -0.063520 -0.167786 -0.045124 -0.122860 -0.443886 -0.490905 0.127709 0.165281 -0.198514 0.661371 -0.865540 0.717775 -0.308954 0.812202 -0.055024 -0.230380 0.141731 0.028655 -0.102394 -0.830570 -0.376129 0.132255 -0.046160 -0.004442
文具 -0.308709 0.215412 -0.177428 -0.310947 0.071660 0.174552 -0.097073 0.119114 0.209286 0.584737 -0.855743 -0.249914 -0.438829 -0.808854 0.477003 -0.208956 -0.097758 -0.371977 0.031067 0.222851 0.087038 0.588824 -0.425601 -0.350898 -0.383219 -0.184578 -0.264394 0.042913 0.160116 -0.027354 -0.393920 -0.597054 0.141985 0.193905 -0.285219 0.577629 -0.887524 0.673696 -0.203742 0.670110 0.047327 -0.171681 0.043617 0.106560 -0.106806 -0.735091 -0.262467 0.172484 -0.020545 0.021328
汽配 -0.255206 0.122695 -0.268419 -0.246781 0.037515 0.307500 0.142807 0.167407 0.120277 0.594262 -0.580994 -0.087412 -0.445778 -0.791251 0.289324 -0.260185 -0.273551 -0.513754 -0.073727 0.214000 0.168392 0.532883 -0.218597 -0.390906 -0.406779 -0.099419 0.026838 -0.093958 -0.160086 -0.041162 -0.473784 -0.385694 0.121760 0.047937 -0.140125 0.441980 -0.622878 0.655629 -0.083420 0.812376 0.011638 -0.164841 0.253724 0.148906 -0.042967 -0.832966 -0.372205 0.014801 -0.039014 -0.231799
